%YAML:1.0
---
opencv_ml_svm:
   format: 3
   svmType: C_SVC
   kernel:
      type: LINEAR
   C: 2.6699999999999999
   term_criteria: { epsilon:1.1920928955078125e-07, iterations:1000 }
   var_count: 61
   class_count: 2
   class_labels: !!opencv-matrix
      rows: 2
      cols: 1
      dt: i
      data: [ 0, 1 ]
   sv_total: 1
   support_vectors:
      - [ -0.000351074908, 0.00043726727, -0.000258055807, 0.00033617075,
          0.000374033116, 0.00112566713, -0.000604384928, 0.00028368755,
          -0.000342537242, 0.000404497667, 0.000156763315,
          -0.00118748739, 0.000777652895, 0.000203400166, 3.5701145e-05,
          0.00232308521, -0.000316949241, -0.00103667623, -0.00023261868,
          -0.00174528034, -0.000434207119, -0.00244869571,
          0.000572327175, 0.00102220941, -5.636071e-05, 0.000280789944,
          -0.000904213695, 0.000990618137, -0.000615521101,
          -0.000726040627, -0.000276099308, -0.000867832394,
          0.000453636982, -0.000585144502, -0.00121082261,
          0.000609652896, -0.00122001313, -0.00113283878, -0.00154166855,
          -0.00279210089, 0.00203033932, -0.00105298695, -0.000165678328,
          0.000751444953, -0.0014578182, -0.00142597652, -0.000146138831,
          -2.10168091e-05, 0.000856490631, -0.000939153717,
          0.00100580696, 0.00167407526, 0.000661724829, 0.00115656957,
          0.000615953933, 0.00116838026, 0.000549292541, -0.000895159377,
          -0.000596957048, -0.00139630039, -0.000559102395 ]
   uncompressed_sv_total: 16
   uncompressed_support_vectors:
      - [ 39., 18., 124., 62., 207., 1., 248., 243., 121., 206., 240.,
          93., 12., 2., 16., 184., 255., 241., 127., 252., 143., 255.,
          248., 135., 31., 16., 16., 12., 2., 0., 62., 79., 220., 19.,
          127., 226., 39., 60., 97., 0., 8., 252., 199., 1., 254., 31.,
          31., 208., 7., 252., 192., 15., 120., 128., 1., 0., 0., 224.,
          249., 255., 62. ]
      - [ 0., 18., 112., 56., 142., 17., 0., 195., 255., 6., 160., 13.,
          0., 0., 224., 127., 254., 129., 127., 240., 15., 255., 240.,
          135., 1., 2., 0., 28., 2., 0., 72., 190., 140., 13., 248.,
          255., 95., 135., 0., 3., 22., 5., 0., 122., 244., 203., 30.,
          0., 7., 240., 0., 15., 112., 128., 1., 2., 0., 224., 121.,
          255., 39. ]
      - [ 33., 22., 100., 48., 140., 17., 64., 135., 227., 7., 0., 31.,
          4., 0., 112., 3., 220., 33., 119., 224., 14., 238., 112., 135.,
          29., 0., 0., 28., 134., 0., 160., 110., 161., 91., 118., 11.,
          255., 31., 1., 4., 12., 188., 7., 128., 12., 255., 63., 104.,
          7., 192., 0., 14., 240., 160., 1., 2., 0., 0., 120., 255., 10. ]
      - [ 63., 31., 254., 127., 207., 17., 176., 102., 211., 156., 9.,
          31., 0., 0., 144., 248., 255., 255., 255., 255., 191., 255.,
          249., 135., 31., 60., 60., 28., 134., 0., 244., 245., 27., 77.,
          164., 203., 186., 220., 111., 0., 254., 3., 16., 197., 13.,
          254., 31., 144., 7., 240., 0., 15., 96., 128., 1., 2., 0.,
          224., 249., 255., 55. ]
      - [ 128., 7., 114., 56., 14., 0., 64., 4., 192., 251., 7., 128.,
          195., 241., 255., 127., 222., 128., 55., 240., 6., 127., 3.,
          0., 0., 0., 0., 12., 2., 112., 65., 64., 1., 80., 0., 10.,
          160., 7., 125., 244., 255., 255., 247., 129., 15., 64., 30.,
          158., 135., 247., 240., 15., 15., 0., 0., 0., 0., 252., 255.,
          255., 62. ]
      - [ 128., 31., 50., 24., 62., 0., 192., 251., 125., 199., 252., 1.,
          0., 128., 255., 62., 46., 128., 59., 240., 23., 127., 5., 0.,
          0., 0., 92., 0., 2., 80., 136., 128., 252., 185., 7., 160.,
          96., 14., 115., 206., 253., 255., 207., 115., 250., 39., 0.,
          0., 2., 64., 0., 6., 112., 244., 0., 0., 0., 240., 253., 239.,
          55. ]
      - [ 229., 16., 108., 52., 140., 29., 248., 255., 65., 8., 112.,
          172., 4., 128., 6., 135., 221., 97., 119., 232., 14., 76.,
          112., 135., 25., 2., 0., 220., 7., 0., 255., 127., 126., 31.,
          233., 34., 46., 242., 185., 5., 8., 8., 68., 0., 255., 193.,
          29., 98., 7., 232., 0., 12., 240., 184., 1., 0., 0., 32., 184.,
          255., 8. ]
      - [ 37., 8., 124., 55., 129., 29., 248., 51., 32., 0., 240., 13.,
          4., 0., 230., 199., 255., 255., 119., 238., 136., 14., 112.,
          231., 1., 2., 0., 220., 231., 8., 255., 255., 61., 23., 228.,
          0., 111., 126., 83., 0., 0., 0., 204., 65., 234., 247., 13.,
          96., 1., 40., 0., 0., 48., 0., 0., 0., 244., 227., 254., 255.,
          0. ]
      - [ 200., 7., 18., 24., 22., 0., 193., 253., 62., 6., 239., 1., 0.,
          200., 223., 56., 6., 128., 25., 112., 7., 119., 1., 0., 0.,
          28., 252., 5., 0., 112., 8., 113., 120., 220., 143., 251., 48.,
          204., 253., 255., 239., 15., 7., 128., 255., 30., 12., 0., 3.,
          224., 136., 142., 124., 100., 0., 0., 0., 240., 255., 15., 63. ]
      - [ 1., 0., 60., 8., 2., 0., 0., 128., 32., 0., 16., 0., 0., 0.,
          0., 195., 63., 0., 3., 96., 0., 6., 48., 0., 0., 0., 0., 0.,
          0., 48., 0., 0., 128., 17., 48., 2., 35., 16., 1., 4., 8., 8.,
          68., 0., 50., 1., 12., 224., 3., 112., 0., 7., 48., 0., 0., 0.,
          0., 0., 24., 247., 1. ]
      - [ 1., 16., 124., 20., 132., 0., 0., 0., 65., 8., 176., 0., 0.,
          0., 0., 192., 255., 98., 15., 224., 0., 14., 240., 128., 0.,
          0., 0., 0., 0., 16., 0., 0., 128., 0., 112., 0., 7., 0., 0.,
          0., 0., 28., 0., 2., 112., 0., 14., 128., 3., 112., 0., 7.,
          32., 128., 0., 0., 0., 0., 128., 127., 1. ]
      - [ 161., 18., 108., 20., 132., 1., 48., 192., 54., 132., 79., 3.,
          4., 128., 171., 245., 223., 64., 35., 248., 6., 70., 112.,
          130., 8., 16., 16., 28., 2., 0., 52., 68., 224., 221., 62.,
          211., 35., 28., 33., 4., 238., 111., 167., 129., 223., 94.,
          13., 80., 3., 248., 145., 6., 240., 192., 0., 0., 0., 2., 253.,
          255., 52. ]
      - [ 167., 2., 124., 191., 133., 1., 248., 63., 224., 151., 201.,
          3., 192., 255., 255., 135., 255., 253., 255., 79., 6., 64.,
          112., 131., 12., 24., 24., 156., 3., 0., 255., 118., 63., 17.,
          5., 2., 187., 31., 85., 4., 238., 171., 86., 129., 175., 39.,
          12., 8., 131., 247., 248., 159., 63., 248., 0., 0., 192., 243.,
          253., 255., 11. ]
      - [ 37., 31., 108., 38., 137., 157., 184., 229., 186., 132., 207.,
          7., 0., 8., 247., 200., 221., 121., 71., 236., 136., 136.,
          112., 231., 17., 34., 32., 220., 199., 8., 127., 247., 93.,
          65., 188., 239., 130., 88., 101., 16., 255., 43., 214., 197.,
          14., 255., 20., 33., 5., 32., 0., 142., 246., 60., 0., 162.,
          1., 240., 254., 7., 11. ]
      - [ 165., 15., 126., 55., 193., 157., 252., 245., 58., 132., 207.,
          71., 32., 254., 187., 240., 223., 121., 119., 204., 140., 0.,
          120., 231., 29., 35., 34., 222., 199., 136., 255., 119., 93.,
          81., 190., 235., 0., 216., 117., 16., 255., 175., 151., 229.,
          143., 127., 30., 147., 71., 240., 216., 159., 63., 4., 0., 0.,
          32., 240., 255., 15., 60. ]
      - [ 97., 176., 12., 4., 128., 17., 224., 71., 2., 24., 1., 158.,
          207., 49., 230., 199., 25., 96., 4., 136., 0., 0., 112., 128.,
          1., 2., 0., 28., 6., 0., 224., 117., 97., 85., 168., 2., 42.,
          240., 125., 1., 110., 3., 20., 128., 15., 184., 111., 255.,
          223., 127., 251., 4., 183., 184., 226., 0., 236., 227., 248.,
          255., 1. ]
   decision_functions:
      -
         sv_count: 1
         rho: -1.3272697018097839
         alpha: [ 1. ]
         index: [ 0 ]
