%YAML:1.0
---
opencv_ml_svm:
   format: 3
   svmType: C_SVC
   kernel:
      type: LINEAR
   C: 2.6699999999999999
   term_criteria: { epsilon:1.1920928955078125e-07, iterations:1000 }
   var_count: 61
   class_count: 2
   class_labels: !!opencv-matrix
      rows: 2
      cols: 1
      dt: i
      data: [ 0, 1 ]
   sv_total: 1
   support_vectors:
      - [ -4.99510315e-05, -4.38408206e-05, 5.48293501e-05,
          -0.000296247308, -0.000148545791, 0.000358484802,
          -0.000122963465, -9.26915818e-05, 4.44664511e-05,
          -0.000284786191, 0.000145966114, 0.000615615805,
          0.000374440657, -0.000209980237, -0.000134131726,
          4.46490485e-05, 2.34238178e-05, -0.000794009422,
          -0.000554922968, -0.000464546843, -0.000377698889,
          0.000576177845, 0.000407467596, -0.000136365852,
          -7.08710577e-05, -4.96688153e-05, 0.000383830018,
          -1.81235337e-05, -0.000372763403, 0.000255896099,
          0.000139374024, -0.00024729647, -1.27218073e-05,
          2.93467638e-05, 0.000632933108, 0.000347130117, 0.000234145817,
          4.25712315e-05, -0.000510136655, -0.000232448278,
          0.000226795601, -6.58510544e-05, 0.000347524649,
          -0.000378122146, 0.000110166497, -5.08731537e-05,
          0.00030899499, 0.000388704502, 0.000170508531, 0.000225916505,
          0.000650933944, 0.00020381299, 0.000203188407, 0.000440226024,
          0.000200263778, 0.000342809362, 0.000105992789,
          -0.000186922203, -0.000268386211, 0.00018835692, 0.00011216267 ]
   uncompressed_sv_total: 834
   uncompressed_support_vectors:
      - [ 97., 24., 124., 60., 136., 17., 248., 50., 0., 216., 224., 1.,
          0., 128., 255., 231., 255., 241., 127., 252., 15., 207., 112.,
          128., 1., 2., 0., 28., 134., 0., 255., 223., 252., 18., 92.,
          2., 36., 32., 129., 4., 1., 136., 255., 1., 238., 247., 31.,
          226., 3., 56., 0., 0., 16., 0., 0., 0., 0., 224., 249., 255.,
          32. ]
      - [ 224., 23., 2., 0., 0., 0., 216., 191., 255., 103., 126., 12.,
          4., 128., 255., 15., 0., 0., 0., 0., 0., 3., 0., 0., 0., 0.,
          0., 8., 6., 0., 143., 254., 183., 255., 5., 182., 255., 255.,
          223., 125., 217., 250., 126., 17., 178., 229., 9., 110., 0.,
          8., 0., 0., 32., 184., 224., 129., 192., 235., 127., 255., 3. ]
      - [ 224., 7., 124., 60., 14., 0., 120., 185., 36., 7., 126., 2.,
          0., 128., 255., 247., 255., 225., 127., 248., 14., 175., 0.,
          128., 0., 0., 0., 28., 128., 0., 255., 235., 63., 72., 1., 1.,
          148., 167., 188., 254., 229., 253., 3., 252., 47., 67., 30.,
          128., 7., 240., 0., 15., 127., 0., 1., 2., 0., 240., 253.,
          255., 8. ]
      - [ 79., 16., 248., 255., 255., 15., 128., 195., 97., 0., 112.,
          188., 15., 1., 232., 63., 252., 95., 255., 255., 255., 254.,
          255., 255., 237., 2., 0., 236., 10., 240., 0., 62., 224., 255.,
          247., 1., 31., 212., 0., 2., 6., 4., 0., 160., 127., 10., 61.,
          80., 15., 236., 225., 14., 240., 240., 0., 0., 0., 0., 248.,
          255., 55. ]
      - [ 65., 248., 13., 4., 0., 17., 0., 192., 23., 0., 11., 130.,
          195., 113., 238., 223., 1., 64., 0., 8., 0., 0., 112., 0., 1.,
          2., 0., 224., 249., 255., 0., 32., 224., 238., 218., 93., 16.,
          128., 128., 187., 119., 4., 0., 254., 0., 24., 0., 8., 128.,
          7., 240., 0., 207., 255., 255., 255., 255., 227., 121., 255.,
          31. ]
      - [ 3., 0., 254., 255., 127., 0., 224., 66., 0., 248., 240., 13.,
          4., 0., 238., 255., 255., 255., 255., 255., 255., 255., 127.,
          128., 1., 2., 0., 0., 2., 0., 248., 95., 154., 5., 248., 66.,
          47., 84., 0., 0., 2., 0., 252., 161., 255., 218., 31., 224.,
          7., 248., 0., 15., 0., 0., 0., 0., 0., 252., 253., 255., 31. ]
      - [ 192., 247., 3., 0., 0., 17., 192., 191., 253., 15., 112., 254.,
          207., 113., 254., 39., 0., 0., 0., 0., 0., 0., 96., 128., 1.,
          2., 0., 224., 255., 255., 192., 255., 31., 169., 224., 21.,
          94., 255., 122., 10., 86., 84., 8., 126., 240., 216., 255.,
          255., 255., 247., 255., 255., 143., 127., 254., 253., 255.,
          255., 255., 255., 8. ]
      - [ 0., 239., 1., 0., 0., 0., 0., 224., 255., 143., 200., 243.,
          251., 127., 238., 7., 0., 0., 0., 0., 0., 0., 0., 128., 1., 0.,
          0., 252., 121., 255., 192., 190., 27., 40., 244., 221., 255.,
          253., 110., 139., 23., 23., 2., 110., 192., 62., 254., 159.,
          255., 247., 255., 255., 159., 127., 254., 253., 255., 255.,
          190., 17., 0. ]
      - [ 254., 25., 242., 255., 127., 232., 255., 63., 200., 255., 236.,
          121., 191., 229., 141., 62., 254., 255., 255., 247., 255.,
          255., 15., 192., 254., 221., 255., 163., 121., 255., 254.,
          255., 63., 255., 7., 0., 254., 255., 255., 255., 131., 129.,
          205., 50., 118., 139., 31., 224., 7., 248., 0., 15., 112., 0.,
          0., 0., 0., 28., 6., 0., 62. ]
      - [ 224., 231., 115., 187., 111., 0., 248., 63., 104., 239., 244.,
          0., 4., 128., 17., 24., 254., 249., 255., 247., 239., 255.,
          15., 0., 0., 0., 0., 28., 6., 0., 255., 255., 31., 0., 1.,
          102., 100., 254., 255., 204., 153., 255., 207., 51., 246., 71.,
          225., 65., 120., 8., 15., 240., 176., 127., 222., 253., 255.,
          27., 134., 0., 39. ]
      - [ 224., 237., 3., 202., 115., 238., 247., 191., 250., 214., 237.,
          5., 0., 128., 9., 60., 30., 222., 191., 255., 255., 127., 15.,
          0., 0., 0., 0., 224., 121., 255., 254., 255., 255., 255., 7.,
          192., 188., 238., 245., 223., 37., 39., 147., 245., 206., 95.,
          224., 1., 120., 0., 15., 240., 240., 199., 30., 60., 60., 0.,
          2., 0., 63. ]
      - [ 39., 14., 254., 255., 111., 221., 126., 16., 232., 111., 246.,
          112., 56., 14., 17., 216., 255., 255., 255., 255., 237., 159.,
          252., 228., 1., 2., 0., 144., 247., 204., 255., 134., 12., 0.,
          32., 96., 215., 31., 50., 128., 148., 245., 203., 126., 118.,
          203., 222., 161., 119., 240., 12., 239., 0., 0., 0., 2., 0.,
          28., 134., 0., 0. ]
      - [ 158., 18., 240., 249., 255., 0., 129., 219., 77., 41., 112.,
          0., 0., 193., 137., 60., 238., 135., 251., 243., 255., 255.,
          143., 3., 14., 28., 252., 11., 2., 48., 0., 68., 230., 185.,
          39., 182., 114., 155., 91., 4., 222., 223., 111., 1., 251.,
          160., 31., 248., 7., 254., 192., 15., 120., 128., 0., 0., 0.,
          224., 253., 255., 63. ]
      - [ 152., 2., 50., 88., 190., 0., 129., 249., 60., 0., 126., 0.,
          0., 192., 255., 52., 238., 128., 187., 248., 127., 119., 7.,
          0., 0., 24., 252., 13., 2., 112., 128., 99., 254., 153., 31.,
          3., 49., 0., 1., 230., 255., 207., 7., 128., 255., 24., 12.,
          0., 3., 240., 192., 15., 63., 128., 0., 0., 0., 240., 253.,
          255., 30. ]
      - [ 39., 18., 252., 63., 142., 17., 120., 131., 97., 3., 48., 28.,
          4., 0., 32., 199., 255., 255., 255., 255., 143., 255., 240.,
          135., 31., 2., 0., 8., 2., 0., 255., 126., 138., 1., 240., 65.,
          191., 31., 0., 0., 4., 4., 1., 160., 255., 202., 31., 224., 7.,
          240., 0., 15., 112., 128., 0., 0., 0., 224., 253., 255., 0. ]
      - [ 254., 15., 114., 250., 127., 0., 248., 126., 28., 251., 127.,
          0., 0., 136., 21., 24., 254., 157., 255., 247., 255., 255.,
          143., 4., 30., 60., 60., 0., 132., 0., 255., 173., 127., 224.,
          15., 92., 64., 245., 255., 250., 245., 255., 251., 127., 84.,
          26., 30., 128., 7., 240., 0., 15., 48., 0., 0., 0., 0., 252.,
          253., 255., 15. ]
      - [ 231., 16., 120., 255., 143., 17., 184., 223., 47., 0., 0.,
          188., 5., 0., 0., 15., 253., 85., 127., 255., 255., 254., 240.,
          247., 31., 2., 0., 28., 2., 0., 167., 127., 234., 255., 255.,
          81., 28., 240., 128., 3., 6., 0., 0., 40., 85., 200., 31.,
          254., 7., 248., 0., 15., 112., 128., 1., 0., 0., 224., 249.,
          255., 0. ]
      - [ 30., 2., 118., 56., 222., 0., 48., 2., 93., 239., 112., 95.,
          2., 2., 208., 120., 238., 129., 123., 112., 15., 255., 187.,
          131., 14., 28., 124., 8., 2., 0., 48., 4., 192., 145., 63.,
          243., 35., 29., 1., 0., 206., 207., 231., 1., 255., 222., 31.,
          182., 7., 240., 0., 15., 56., 128., 0., 0., 0., 240., 253.,
          255., 53. ]
      - [ 231., 16., 124., 62., 141., 25., 248., 115., 65., 8., 240.,
          15., 4., 0., 224., 15., 255., 217., 255., 254., 255., 254.,
          248., 199., 29., 2., 0., 28., 7., 0., 190., 79., 252., 147.,
          111., 130., 38., 48., 225., 4., 0., 252., 231., 1., 255., 255.,
          31., 96., 7., 232., 0., 14., 112., 128., 1., 0., 0., 224.,
          248., 255., 11. ]
      - [ 64., 232., 1., 0., 0., 238., 135., 64., 16., 248., 127., 131.,
          199., 113., 238., 63., 0., 2., 128., 0., 48., 0., 3., 120.,
          225., 195., 195., 227., 121., 255., 64., 31., 144., 6., 252.,
          144., 13., 40., 128., 1., 1., 0., 250., 127., 255., 52., 224.,
          31., 248., 15., 255., 240., 223., 127., 255., 255., 255., 3.,
          0., 0., 63. ]
      - [ 64., 232., 3., 64., 48., 238., 199., 0., 0., 248., 31., 140.,
          199., 113., 238., 63., 0., 130., 128., 17., 113., 17., 7.,
          152., 227., 199., 199., 99., 120., 255., 128., 25., 96., 6.,
          193., 0., 12., 96., 248., 243., 1., 0., 240., 255., 255., 33.,
          224., 127., 248., 15., 255., 240., 143., 127., 254., 255.,
          255., 223., 3., 0., 63. ]
      - [ 64., 232., 131., 64., 16., 238., 199., 64., 0., 248., 126.,
          140., 195., 113., 238., 63., 0., 2., 128., 1., 48., 0., 7.,
          248., 225., 195., 195., 227., 121., 255., 192., 29., 94., 7.,
          232., 16., 14., 112., 255., 0., 0., 0., 252., 127., 255., 216.,
          225., 127., 248., 7., 255., 240., 143., 127., 254., 253., 255.,
          31., 0., 0., 63. ]
      - [ 65., 232., 131., 192., 112., 238., 71., 32., 0., 254., 255.,
          135., 195., 241., 238., 63., 0., 2., 128., 3., 112., 0., 111.,
          248., 225., 195., 195., 227., 121., 255., 192., 29., 60., 7.,
          228., 0., 14., 126., 120., 1., 2., 0., 252., 253., 255., 247.,
          225., 31., 248., 7., 255., 240., 143., 127., 255., 255., 255.,
          31., 2., 0., 63. ]
      - [ 1., 232., 3., 0., 16., 238., 71., 0., 0., 248., 255., 132.,
          195., 113., 238., 63., 0., 2., 128., 1., 48., 0., 119., 248.,
          225., 193., 195., 227., 121., 255., 128., 30., 160., 7., 240.,
          0., 15., 82., 0., 1., 2., 0., 252., 253., 255., 195., 224.,
          31., 248., 7., 255., 240., 143., 255., 255., 255., 255., 3.,
          2., 0., 63. ]
      - [ 64., 232., 3., 0., 0., 238., 199., 0., 0., 248., 141., 143.,
          199., 113., 238., 63., 0., 0., 0., 0., 0., 0., 0., 184., 225.,
          195., 195., 227., 121., 255., 192., 29., 32., 7., 224., 0.,
          14., 112., 255., 1., 2., 0., 252., 255., 255., 247., 225.,
          127., 248., 7., 255., 240., 143., 127., 255., 255., 255., 143.,
          1., 200., 63. ]
      - [ 64., 232., 1., 0., 0., 238., 135., 64., 0., 248., 0., 134.,
          195., 113., 238., 63., 0., 0., 0., 0., 0., 0., 0., 24., 224.,
          194., 193., 225., 121., 255., 0., 17., 192., 38., 216., 4., 0.,
          96., 128., 9., 2., 0., 232., 127., 240., 154., 224., 63., 248.,
          7., 255., 240., 207., 127., 255., 255., 255., 227., 121., 255.,
          63. ]
      - [ 158., 2., 254., 249., 62., 0., 200., 122., 9., 248., 240., 12.,
          0., 0., 0., 8., 254., 143., 255., 251., 255., 255., 143., 135.,
          30., 60., 60., 8., 2., 0., 200., 223., 95., 16., 248., 254.,
          0., 16., 89., 4., 234., 202., 254., 129., 187., 225., 31.,
          128., 7., 240., 0., 15., 0., 128., 0., 0., 0., 252., 253.,
          255., 37. ]
      - [ 71., 0., 254., 255., 255., 143., 254., 43., 65., 140., 112.,
          107., 116., 140., 19., 192., 255., 255., 255., 255., 255.,
          127., 127., 218., 1., 2., 0., 232., 123., 240., 229., 107.,
          178., 26., 84., 129., 53., 40., 128., 38., 1., 220., 3., 65.,
          255., 188., 31., 224., 7., 248., 0., 15., 48., 0., 0., 0., 0.,
          20., 132., 0., 56. ]
      - [ 161., 226., 255., 191., 143., 17., 88., 3., 97., 8., 176., 12.,
          4., 0., 0., 218., 255., 255., 127., 255., 207., 255., 116.,
          128., 1., 0., 0., 156., 166., 0., 223., 255., 31., 34., 112.,
          53., 247., 35., 130., 106., 16., 252., 9., 26., 48., 192.,
          227., 105., 120., 8., 15., 224., 128., 7., 254., 253., 255.,
          31., 134., 0., 30. ]
      - [ 216., 2., 50., 120., 62., 0., 192., 63., 4., 41., 18., 2., 0.,
          224., 255., 62., 226., 128., 249., 49., 63., 247., 3., 0., 14.,
          252., 252., 1., 0., 0., 192., 237., 87., 193., 41., 56., 0.,
          240., 95., 0., 236., 254., 114., 156., 27., 160., 30., 184.,
          7., 118., 0., 15., 12., 0., 0., 0., 0., 251., 255., 255., 31. ]
      - [ 191., 22., 252., 251., 255., 17., 56., 137., 244., 39., 122.,
          134., 195., 241., 255., 199., 255., 255., 255., 247., 255.,
          255., 255., 255., 223., 57., 191., 223., 231., 8., 63., 38.,
          146., 153., 181., 255., 251., 159., 8., 32., 254., 239., 35.,
          216., 191., 240., 31., 158., 135., 247., 240., 15., 127., 248.,
          225., 195., 195., 255., 249., 255., 1. ]
      - [ 191., 18., 252., 255., 159., 17., 32., 195., 127., 0., 240.,
          11., 4., 128., 110., 199., 255., 159., 255., 255., 255., 255.,
          255., 239., 31., 62., 56., 28., 2., 0., 248., 127., 18., 27.,
          252., 147., 63., 185., 65., 6., 12., 12., 2., 0., 253., 124.,
          31., 130., 7., 248., 80., 15., 112., 128., 1., 0., 0., 224.,
          121., 255., 24. ]
      - [ 71., 16., 248., 124., 142., 17., 192., 59., 65., 136., 240.,
          31., 4., 0., 192., 63., 255., 225., 255., 255., 15., 255.,
          240., 135., 31., 6., 0., 0., 2., 0., 192., 255., 126., 7.,
          228., 0., 14., 112., 113., 0., 0., 0., 196., 65., 254., 191.,
          31., 224., 7., 248., 0., 15., 112., 128., 0., 0., 0., 224.,
          121., 255., 39. ]
      - [ 158., 6., 114., 56., 30., 0., 192., 63., 0., 239., 254., 3.,
          4., 128., 0., 190., 254., 225., 255., 241., 15., 255., 129.,
          7., 30., 62., 60., 0., 2., 0., 192., 255., 31., 16., 16., 42.,
          177., 14., 1., 247., 239., 175., 87., 128., 15., 103., 30.,
          156., 7., 255., 240., 15., 15., 0., 0., 0., 0., 252., 255.,
          255., 15. ]
      - [ 33., 205., 15., 4., 0., 208., 60., 10., 197., 255., 50., 128.,
          64., 248., 255., 199., 31., 240., 7., 0., 0., 0., 0., 0., 0.,
          2., 0., 208., 255., 206., 255., 202., 23., 32., 16., 52., 237.,
          15., 138., 253., 241., 248., 255., 31., 48., 224., 194., 7.,
          128., 16., 52., 233., 15., 136., 253., 251., 251., 255., 31.,
          49., 0. ]
      - [ 33., 12., 127., 6., 0., 16., 120., 24., 64., 255., 118., 132.,
          65., 120., 255., 199., 63., 249., 15., 40., 0., 0., 112., 0.,
          0., 0., 0., 0., 246., 140., 255., 195., 191., 160., 17., 0.,
          97., 7., 0., 252., 251., 251., 255., 27., 242., 193., 2., 174.,
          128., 17., 32., 207., 15., 0., 240., 227., 227., 255., 255.,
          255., 1. ]
      - [ 136., 6., 112., 56., 62., 0., 0., 129., 125., 7., 122., 7., 0.,
          128., 102., 7., 254., 129., 127., 240., 31., 255., 3., 0., 0.,
          0., 28., 0., 0., 0., 0., 34., 226., 251., 23., 155., 241.,
          139., 0., 126., 253., 255., 3., 200., 155., 240., 31., 160.,
          7., 240., 0., 15., 48., 0., 0., 0., 0., 224., 121., 255., 0. ]
      - [ 33., 14., 126., 56., 142., 1., 48., 128., 232., 7., 164., 12.,
          0., 0., 254., 199., 255., 225., 127., 240., 15., 255., 240.,
          135., 0., 0., 0., 28., 134., 0., 62., 6., 168., 1., 50., 64.,
          247., 23., 0., 0., 252., 253., 189., 164., 69., 202., 31.,
          128., 7., 240., 0., 15., 0., 0., 1., 2., 0., 252., 255., 255.,
          0. ]
      - [ 225., 247., 77., 4., 128., 255., 56., 46., 215., 253., 16.,
          238., 119., 221., 47., 229., 17., 97., 4., 8., 0., 0., 64.,
          196., 209., 35., 3., 252., 255., 15., 127., 249., 19., 250.,
          216., 255., 244., 233., 223., 255., 89., 124., 46., 2., 16.,
          240., 209., 63., 176., 0., 22., 232., 79., 255., 255., 255.,
          91., 252., 1., 16., 56. ]
      - [ 0., 248., 129., 192., 112., 238., 71., 0., 0., 249., 127.,
          130., 195., 113., 238., 63., 0., 6., 128., 1., 112., 0., 31.,
          120., 224., 193., 195., 227., 121., 255., 0., 10., 128., 3.,
          240., 48., 15., 11., 128., 0., 0., 0., 252., 255., 255., 32.,
          224., 31., 248., 7., 255., 240., 207., 255., 255., 255., 255.,
          7., 128., 0., 62. ]
      - [ 0., 232., 3., 0., 16., 238., 71., 0., 0., 241., 127., 130.,
          195., 113., 238., 63., 0., 2., 128., 1., 48., 0., 55., 248.,
          224., 193., 195., 227., 121., 255., 64., 10., 130., 2., 80.,
          16., 7., 11., 128., 32., 0., 192., 255., 127., 255., 48., 224.,
          31., 248., 7., 255., 240., 255., 127., 254., 253., 255., 3.,
          0., 0., 63. ]
      - [ 72., 232., 131., 192., 112., 238., 7., 0., 8., 255., 255.,
          132., 131., 241., 238., 63., 0., 6., 128., 3., 112., 0., 143.,
          248., 227., 199., 199., 227., 121., 255., 192., 28., 0., 7.,
          224., 0., 14., 127., 127., 0., 2., 0., 252., 253., 255., 65.,
          224., 19., 248., 4., 191., 240., 143., 127., 254., 253., 255.,
          31., 134., 0., 52. ]
      - [ 224., 247., 141., 135., 225., 255., 63., 223., 255., 27., 1.,
          240., 251., 255., 63., 193., 1., 124., 0., 12., 0., 0., 0.,
          120., 224., 193., 195., 255., 255., 255., 127., 240., 11.,
          252., 138., 127., 248., 245., 255., 255., 255., 125., 29.,
          128., 0., 200., 224., 3., 248., 0., 31., 240., 203., 255.,
          255., 255., 255., 15., 0., 0., 48. ]
      - [ 64., 232., 15., 4., 0., 238., 7., 0., 0., 248., 143., 157.,
          207., 113., 238., 127., 0., 0., 0., 8., 0., 0., 0., 184., 227.,
          199., 199., 227., 121., 255., 0., 24., 32., 6., 192., 0., 12.,
          112., 254., 161., 2., 0., 252., 255., 255., 200., 225., 127.,
          248., 15., 255., 240., 143., 127., 254., 253., 255., 223., 1.,
          0., 63. ]
      - [ 64., 232., 3., 64., 16., 238., 7., 0., 0., 248., 255., 140.,
          195., 113., 238., 63., 0., 2., 128., 1., 48., 0., 7., 248.,
          225., 193., 195., 227., 121., 255., 0., 8., 96., 7., 234., 0.,
          4., 112., 254., 0., 0., 0., 252., 255., 255., 203., 225., 63.,
          248., 7., 255., 240., 143., 127., 254., 255., 255., 31., 0.,
          0., 63. ]
      - [ 225., 239., 15., 135., 193., 255., 255., 255., 255., 123.,
          129., 224., 243., 253., 127., 193., 1., 124., 0., 14., 128.,
          0., 0., 120., 225., 195., 195., 255., 255., 255., 255., 225.,
          109., 120., 11., 111., 240., 246., 255., 255., 255., 255., 21.,
          132., 0., 75., 225., 79., 248., 11., 127., 240., 131., 127.,
          254., 255., 255., 31., 134., 0., 0. ]
      - [ 64., 248., 1., 0., 0., 254., 199., 199., 3., 24., 1., 143.,
          195., 113., 238., 63., 0., 0., 0., 0., 0., 0., 0., 0., 0., 2.,
          0., 224., 249., 255., 192., 139., 224., 34., 88., 4., 69., 32.,
          128., 9., 0., 16., 56., 46., 0., 216., 97., 62., 152., 7.,
          243., 48., 207., 127., 255., 255., 255., 227., 121., 255., 63. ]
      - [ 0., 248., 1., 0., 16., 238., 7., 0., 0., 248., 1., 128., 195.,
          113., 238., 63., 6., 130., 131., 112., 48., 15., 3., 0., 0.,
          64., 192., 224., 121., 255., 192., 10., 160., 0., 0., 0., 7.,
          2., 128., 0., 0., 192., 252., 127., 255., 33., 0., 30., 128.,
          15., 240., 0., 127., 248., 225., 195., 195., 227., 121., 255.,
          63. ]
      - [ 0., 248., 3., 0., 0., 238., 7., 64., 131., 24., 1., 131., 195.,
          113., 238., 63., 6., 128., 3., 112., 0., 15., 0., 0., 0., 0.,
          0., 224., 121., 255., 64., 7., 1., 0., 184., 8., 128., 16., 4.,
          16., 34., 32., 188., 205., 9., 120., 0., 30., 128., 7., 240.,
          0., 15., 248., 225., 195., 195., 227., 121., 255., 63. ]
      - [ 64., 233., 3., 0., 0., 238., 199., 66., 1., 216., 160., 129.,
          195., 113., 238., 63., 0., 0., 0., 8., 0., 0., 0., 0., 0., 0.,
          0., 224., 121., 255., 128., 153., 104., 38., 74., 4., 64., 96.,
          162., 221., 16., 16., 253., 38., 64., 203., 1., 30., 128., 7.,
          240., 0., 143., 255., 254., 253., 255., 227., 249., 255., 63. ]
      - [ 30., 18., 114., 56., 158., 0., 128., 82., 93., 232., 240.,
          205., 199., 177., 255., 71., 238., 129., 123., 248., 255.,
          255., 183., 135., 14., 28., 124., 8., 2., 0., 72., 69., 94.,
          145., 61., 242., 34., 16., 121., 4., 200., 219., 239., 1.,
          255., 52., 30., 142., 135., 247., 240., 15., 63., 128., 0., 0.,
          0., 240., 253., 255., 1. ]
      - [ 63., 18., 112., 60., 142., 0., 184., 114., 93., 234., 240.,
          205., 231., 49., 255., 15., 252., 1., 127., 248., 31., 255.,
          240., 135., 30., 60., 60., 8., 2., 0., 56., 71., 252., 147.,
          63., 226., 34., 16., 1., 4., 200., 223., 239., 1., 255., 159.,
          31., 254., 135., 255., 240., 15., 119., 128., 0., 0., 0., 240.,
          253., 255., 0. ]
      - [ 167., 18., 96., 251., 255., 31., 184., 235., 117., 8., 112.,
          59., 222., 129., 8., 55., 220., 53., 247., 231., 254., 255.,
          127., 255., 29., 2., 0., 252., 3., 0., 39., 76., 148., 27.,
          125., 179., 55., 187., 209., 4., 0., 204., 71., 1., 255., 53.,
          60., 18., 143., 246., 241., 31., 255., 232., 1., 0., 0., 0.,
          249., 255., 60. ]
      - [ 33., 22., 248., 255., 255., 1., 176., 251., 125., 0., 240.,
          12., 4., 0., 238., 63., 254., 159., 255., 247., 255., 255.,
          255., 199., 0., 0., 0., 28., 197., 136., 126., 167., 138.,
          169., 186., 247., 83., 21., 0., 0., 254., 87., 129., 106.,
          245., 90., 62., 152., 15., 254., 241., 31., 127., 128., 0., 0.,
          0., 128., 253., 255., 31. ]
      - [ 71., 24., 252., 126., 143., 17., 224., 179., 97., 8., 224.,
          29., 4., 0., 0., 203., 255., 247., 255., 252., 159., 255.,
          240., 135., 31., 2., 0., 0., 2., 0., 240., 175., 248., 3.,
          114., 64., 7., 36., 160., 128., 0., 20., 131., 98., 196., 222.,
          31., 128., 7., 240., 0., 15., 112., 128., 0., 0., 0., 224.,
          253., 255., 1. ]
      - [ 97., 237., 79., 32., 8., 17., 120., 20., 130., 250., 143., 12.,
          0., 0., 254., 135., 31., 249., 71., 246., 8., 143., 112., 128.,
          1., 0., 0., 244., 253., 15., 31., 160., 97., 111., 235., 109.,
          222., 246., 126., 91., 182., 181., 8., 126., 0., 199., 129.,
          0., 32., 0., 4., 64., 128., 127., 255., 255., 255., 31., 2.,
          0., 8. ]
      - [ 160., 22., 112., 56., 207., 1., 120., 181., 186., 6., 175.,
          129., 198., 241., 239., 39., 254., 177., 127., 244., 143.,
          255., 28., 0., 0., 2., 0., 28., 134., 0., 254., 230., 188.,
          24., 23., 227., 255., 143., 1., 206., 255., 159., 3., 0., 238.,
          71., 30., 130., 135., 248., 48., 15., 113., 0., 0., 0., 0.,
          248., 127., 255., 0. ]
      - [ 158., 6., 240., 251., 255., 0., 176., 250., 93., 237., 112.,
          246., 251., 126., 17., 0., 254., 129., 255., 255., 255., 255.,
          175., 135., 30., 60., 60., 8., 2., 0., 55., 71., 254., 155.,
          63., 243., 34., 17., 73., 4., 204., 255., 231., 129., 255.,
          56., 30., 128., 7., 241., 48., 15., 127., 128., 0., 0., 0.,
          240., 253., 255., 33. ]
      - [ 231., 16., 252., 183., 141., 29., 248., 123., 65., 8., 112.,
          15., 4., 0., 228., 207., 255., 127., 119., 239., 238., 236.,
          240., 255., 29., 3., 0., 220., 3., 0., 255., 127., 126., 23.,
          109., 2., 38., 240., 209., 4., 0., 8., 68., 1., 255., 37., 29.,
          100., 7., 233., 32., 14., 240., 144., 0., 0., 0., 64., 248.,
          255., 1. ]
      - [ 216., 15., 50., 120., 126., 0., 160., 253., 62., 2., 255., 1.,
          0., 128., 255., 0., 254., 129., 255., 240., 255., 255., 15.,
          0., 0., 0., 40., 28., 128., 0., 0., 161., 255., 250., 15.,
          253., 208., 160., 254., 255., 245., 255., 3., 126., 0., 32.,
          20., 128., 7., 248., 0., 15., 112., 0., 0., 2., 0., 248., 255.,
          255., 3. ]
      - [ 1., 22., 124., 16., 142., 1., 8., 129., 36., 7., 126., 14., 0.,
          0., 254., 95., 252., 12., 55., 241., 247., 255., 255., 179.,
          0., 0., 0., 76., 18., 240., 3., 103., 196., 153., 61., 255.,
          35., 16., 0., 0., 254., 255., 71., 128., 255., 229., 13., 124.,
          3., 72., 0., 0., 176., 248., 0., 0., 196., 195., 253., 255.,
          7. ]
      - [ 31., 18., 252., 255., 255., 1., 32., 192., 31., 204., 236., 3.,
          4., 0., 240., 193., 255., 159., 255., 252., 255., 255., 255.,
          7., 11., 62., 0., 0., 2., 0., 56., 64., 208., 17., 62., 194.,
          35., 24., 65., 4., 9., 139., 199., 1., 255., 63., 30., 128.,
          7., 248., 80., 15., 96., 128., 1., 2., 0., 224., 249., 255.,
          26. ]
      - [ 190., 7., 254., 251., 127., 0., 56., 24., 236., 255., 127., 4.,
          0., 136., 29., 248., 255., 191., 255., 247., 239., 255., 143.,
          7., 30., 60., 60., 22., 132., 0., 63., 0., 128., 184., 19.,
          127., 241., 7., 176., 255., 255., 255., 195., 58., 118., 203.,
          31., 184., 7., 240., 0., 15., 4., 0., 0., 0., 0., 252., 255.,
          255., 31. ]
      - [ 160., 247., 3., 0., 0., 16., 56., 192., 31., 99., 118., 12.,
          4., 128., 255., 63., 0., 0., 0., 8., 0., 0., 16., 0., 0., 2.,
          0., 0., 2., 0., 63., 0., 224., 255., 223., 245., 65., 3., 128.,
          255., 213., 213., 107., 122., 240., 129., 1., 96., 0., 8., 0.,
          0., 224., 255., 255., 255., 255., 31., 3., 0., 62. ]
      - [ 103., 24., 124., 60., 142., 17., 248., 51., 65., 72., 224.,
          13., 4., 0., 228., 31., 255., 241., 127., 254., 143., 254.,
          240., 135., 31., 6., 0., 0., 2., 0., 191., 31., 244., 95., 7.,
          0., 15., 18., 0., 0., 130., 128., 212., 245., 175., 231., 31.,
          216., 7., 248., 0., 15., 112., 128., 0., 0., 0., 224., 249.,
          255., 31. ]
      - [ 192., 237., 3., 0., 0., 16., 128., 236., 159., 176., 11., 2.,
          4., 128., 239., 15., 30., 128., 7., 240., 48., 15., 7., 0., 1.,
          2., 0., 240., 253., 255., 0., 136., 225., 250., 79., 126.,
          196., 160., 255., 255., 33., 252., 255., 166., 0., 74., 0., 0.,
          0., 8., 0., 0., 128., 255., 255., 255., 255., 255., 3., 0., 0. ]
      - [ 32., 246., 1., 0., 128., 238., 143., 251., 63., 0., 240., 0.,
          0., 0., 255., 63., 0., 0., 0., 0., 0., 0., 0., 0., 0., 0., 0.,
          252., 127., 255., 74., 247., 95., 17., 248., 255., 2., 16.,
          35., 0., 254., 255., 253., 0., 96., 11., 0., 32., 0., 0., 0.,
          0., 240., 255., 255., 255., 255., 3., 0., 0., 62. ]
      - [ 1., 246., 13., 0., 128., 31., 8., 192., 255., 7., 90., 14., 0.,
          0., 254., 103., 30., 128., 7., 240., 0., 15., 112., 128., 1.,
          2., 0., 244., 249., 255., 37., 2., 224., 255., 119., 255.,
          247., 15., 0., 0., 84., 254., 3., 94., 152., 244., 225., 0.,
          0., 0., 0., 0., 128., 255., 255., 255., 255., 11., 2., 0., 24. ]
      - [ 184., 6., 114., 248., 255., 0., 184., 249., 62., 7., 127., 3.,
          0., 128., 255., 39., 254., 159., 255., 247., 255., 255., 15.,
          0., 0., 0., 0., 12., 0., 0., 124., 119., 223., 153., 191.,
          251., 49., 143., 9., 230., 255., 207., 7., 128., 255., 56., 0.,
          0., 0., 0., 0., 0., 112., 120., 0., 0., 192., 251., 255., 255.,
          32. ]
      - [ 79., 16., 252., 255., 127., 0., 248., 106., 0., 232., 112.,
          14., 4., 0., 254., 31., 255., 255., 255., 255., 255., 255.,
          127., 128., 1., 0., 0., 0., 0., 0., 231., 255., 254., 175.,
          127., 0., 0., 16., 0., 0., 0., 208., 235., 123., 255., 248.,
          31., 254., 7., 248., 0., 7., 0., 0., 0., 0., 0., 224., 249.,
          255., 24. ]
      - [ 56., 30., 244., 251., 255., 1., 48., 229., 255., 22., 141.,
          15., 0., 0., 255., 15., 254., 159., 255., 247., 255., 255.,
          127., 0., 0., 0., 0., 28., 134., 0., 117., 247., 223., 89.,
          191., 255., 163., 4., 0., 0., 254., 255., 151., 128., 15.,
          223., 30., 132., 7., 240., 0., 15., 127., 128., 1., 2., 0.,
          224., 253., 255., 3. ]
      - [ 216., 3., 50., 88., 22., 0., 3., 64., 158., 244., 143., 223.,
          207., 1., 244., 31., 70., 128., 57., 48., 55., 119., 3., 0.,
          4., 220., 220., 12., 0., 240., 0., 64., 96., 222., 7., 3.,
          176., 249., 253., 247., 239., 111., 6., 128., 31., 248., 31.,
          255., 195., 124., 8., 135., 16., 0., 0., 0., 224., 251., 255.,
          15., 52. ]
      - [ 0., 15., 242., 252., 223., 0., 224., 187., 104., 66., 244., 0.,
          0., 240., 255., 7., 30., 130., 135., 252., 241., 15., 63., 0.,
          0., 0., 64., 224., 127., 255., 184., 132., 234., 249., 38.,
          84., 66., 21., 107., 160., 252., 255., 175., 107., 213., 24.,
          30., 254., 199., 247., 240., 15., 63., 0., 0., 0., 192., 243.,
          253., 255., 31. ]
      - [ 0., 125., 3., 0., 2., 176., 48., 52., 219., 222., 237., 5.,
          131., 233., 255., 30., 0., 128., 0., 16., 0., 23., 0., 0., 2.,
          4., 68., 0., 236., 157., 56., 0., 224., 119., 7., 236., 239.,
          126., 246., 217., 179., 179., 223., 119., 68., 31., 0., 104.,
          68., 7., 232., 136., 238., 255., 255., 255., 163., 255., 255.,
          206., 31. ]
      - [ 254., 23., 240., 255., 127., 0., 136., 253., 62., 33., 95., 2.,
          0., 128., 255., 63., 254., 255., 255., 255., 255., 255., 31.,
          0., 0., 0., 0., 28., 132., 0., 135., 99., 255., 255., 7., 2.,
          48., 129., 9., 246., 255., 255., 7., 128., 31., 224., 30.,
          128., 7., 240., 0., 15., 96., 128., 1., 2., 0., 224., 249.,
          255., 62. ]
      - [ 192., 15., 242., 251., 127., 0., 240., 255., 30., 0., 175., 1.,
          0., 128., 255., 55., 254., 191., 255., 247., 255., 255., 15.,
          0., 0., 2., 0., 8., 2., 0., 252., 255., 127., 254., 7., 217.,
          144., 253., 255., 255., 245., 255., 3., 254., 13., 30., 30.,
          128., 7., 240., 0., 15., 112., 128., 0., 0., 0., 252., 255.,
          255., 56. ]
      - [ 31., 18., 250., 255., 255., 0., 216., 91., 9., 104., 240., 12.,
          4., 0., 238., 31., 255., 255., 255., 255., 255., 255., 255.,
          131., 15., 22., 20., 0., 2., 0., 143., 87., 228., 157., 59.,
          34., 34., 18., 17., 0., 222., 137., 228., 0., 247., 131., 31.,
          224., 7., 240., 0., 15., 48., 0., 0., 0., 0., 240., 255., 255.,
          39. ]
      - [ 1., 12., 14., 0., 128., 0., 96., 35., 224., 7., 88., 15., 4.,
          0., 238., 247., 31., 160., 7., 240., 0., 15., 112., 128., 1.,
          0., 0., 4., 0., 0., 229., 174., 25., 2., 112., 141., 215.,
          191., 194., 2., 0., 252., 3., 126., 136., 190., 1., 96., 0.,
          8., 0., 0., 0., 120., 224., 193., 195., 243., 253., 255., 26. ]
      - [ 1., 252., 15., 0., 0., 254., 55., 196., 186., 22., 141., 139.,
          199., 113., 238., 255., 1., 32., 0., 0., 0., 0., 112., 0., 1.,
          2., 0., 224., 121., 255., 120., 191., 31., 0., 248., 255., 75.,
          6., 0., 1., 242., 3., 248., 127., 224., 207., 1., 96., 0., 0.,
          0., 0., 128., 127., 255., 255., 255., 3., 2., 0., 63. ]
      - [ 160., 255., 3., 0., 128., 153., 60., 255., 255., 255., 165.,
          205., 231., 249., 255., 31., 0., 0., 0., 0., 0., 7., 16., 0.,
          0., 0., 0., 152., 239., 12., 126., 215., 31., 117., 255., 255.,
          235., 95., 119., 221., 255., 187., 255., 119., 68., 207., 17.,
          31., 0., 143., 248., 136., 239., 255., 255., 255., 163., 255.,
          255., 239., 15. ]
      - [ 192., 253., 3., 0., 0., 144., 240., 63., 219., 254., 205.,
          207., 131., 113., 255., 63., 0., 0., 0., 0., 0., 1., 0., 128.,
          0., 0., 0., 0., 204., 137., 252., 255., 63., 99., 71., 204.,
          238., 254., 255., 152., 49., 187., 255., 247., 140., 255.,
          225., 63., 0., 7., 192., 128., 254., 127., 255., 255., 255.,
          255., 255., 239., 63. ]
      - [ 64., 232., 131., 192., 112., 238., 199., 120., 0., 248., 255.,
          128., 195., 113., 238., 63., 0., 6., 128., 3., 240., 0., 15.,
          248., 225., 195., 195., 227., 121., 255., 192., 29., 30., 5.,
          232., 240., 14., 112., 127., 1., 2., 0., 252., 127., 255., 79.,
          224., 31., 248., 15., 255., 240., 143., 255., 255., 253., 255.,
          31., 2., 0., 62. ]
      - [ 64., 232., 3., 0., 0., 238., 199., 0., 0., 248., 91., 142.,
          199., 113., 238., 63., 0., 0., 128., 0., 16., 0., 1., 120.,
          224., 193., 195., 227., 121., 255., 192., 11., 246., 2., 64.,
          0., 5., 32., 128., 96., 1., 192., 250., 255., 255., 176., 225.,
          127., 248., 15., 255., 240., 159., 127., 254., 253., 255., 3.,
          0., 128., 63. ]
      - [ 64., 248., 1., 0., 0., 238., 199., 64., 0., 248., 127., 139.,
          199., 113., 238., 63., 0., 0., 128., 9., 112., 0., 71., 248.,
          225., 195., 195., 227., 121., 255., 128., 11., 244., 131., 85.,
          0., 5., 32., 128., 64., 1., 192., 254., 255., 255., 37., 224.,
          127., 248., 15., 255., 240., 255., 127., 254., 255., 255., 3.,
          0., 0., 63. ]
      - [ 64., 232., 3., 64., 16., 238., 199., 0., 0., 248., 239., 133.,
          195., 113., 238., 63., 0., 0., 128., 1., 48., 0., 3., 248.,
          225., 195., 195., 227., 121., 255., 192., 29., 52., 7., 65.,
          0., 14., 122., 254., 65., 0., 0., 252., 255., 255., 165., 224.,
          63., 248., 7., 255., 240., 143., 255., 255., 255., 255., 15.,
          0., 0., 63. ]
      - [ 0., 248., 1., 0., 0., 238., 7., 64., 0., 120., 128., 140.,
          195., 113., 238., 63., 0., 0., 0., 0., 0., 0., 16., 120., 224.,
          193., 195., 227., 121., 255., 0., 6., 192., 3., 120., 0., 3.,
          0., 0., 0., 0., 128., 252., 255., 103., 195., 225., 127., 248.,
          7., 255., 240., 143., 255., 254., 253., 255., 131., 113., 255.,
          63. ]
      - [ 1., 248., 1., 0., 0., 255., 7., 197., 162., 16., 129., 143.,
          195., 113., 238., 127., 0., 0., 0., 0., 0., 0., 112., 0., 1.,
          2., 0., 224., 249., 255., 0., 22., 160., 39., 176., 0., 79.,
          0., 0., 1., 18., 0., 92., 6., 0., 3., 96., 30., 152., 15.,
          243., 48., 239., 255., 255., 255., 255., 227., 121., 255., 63. ]
      - [ 159., 18., 120., 252., 143., 0., 192., 187., 117., 45., 112.,
          130., 243., 253., 255., 7., 255., 225., 255., 251., 127., 255.,
          240., 135., 14., 24., 28., 12., 2., 0., 192., 79., 190., 147.,
          118., 18., 39., 29., 1., 4., 72., 252., 231., 1., 255., 56.,
          31., 214., 135., 255., 240., 15., 115., 128., 0., 0., 0., 240.,
          253., 255., 32. ]
      - [ 191., 18., 252., 183., 205., 15., 120., 165., 226., 7., 9., 3.,
          253., 123., 244., 222., 253., 127., 244., 15., 142., 224.,
          240., 127., 255., 255., 187., 255., 7., 0., 63., 84., 176.,
          149., 182., 210., 187., 93., 65., 4., 238., 11., 164., 129.,
          223., 188., 29., 232., 143., 231., 64., 14., 244., 160., 1.,
          2., 0., 128., 120., 255., 30. ]
      - [ 33., 24., 116., 56., 206., 17., 184., 122., 95., 251., 240.,
          140., 69., 0., 254., 7., 254., 129., 127., 240., 143., 255.,
          252., 132., 1., 2., 0., 0., 134., 0., 127., 159., 222., 167.,
          255., 246., 79., 55., 128., 0., 0., 208., 253., 123., 240.,
          200., 31., 190., 135., 247., 112., 15., 127., 128., 1., 2., 0.,
          228., 249., 255., 0. ]
      - [ 200., 2., 242., 120., 30., 0., 192., 1., 0., 0., 252., 3., 0.,
          128., 136., 183., 254., 167., 255., 241., 31., 255., 3., 0.,
          0., 0., 28., 0., 2., 0., 192., 107., 50., 16., 0., 2., 32.,
          160., 137., 255., 77., 252., 7., 128., 223., 56., 30., 224.,
          7., 240., 0., 15., 16., 0., 0., 0., 0., 240., 253., 255., 62. ]
      - [ 127., 16., 252., 255., 143., 17., 200., 131., 97., 0., 128.,
          12., 0., 0., 0., 247., 255., 255., 255., 255., 255., 255.,
          246., 183., 31., 58., 56., 28., 2., 0., 139., 79., 229., 91.,
          97., 0., 39., 48., 129., 0., 0., 188., 87., 128., 10., 103.,
          30., 128., 7., 240., 16., 15., 121., 128., 1., 0., 0., 224.,
          121., 255., 56. ]
      - [ 200., 7., 18., 24., 54., 0., 195., 255., 62., 6., 239., 1.,
          32., 232., 223., 56., 6., 128., 57., 112., 7., 119., 5., 0.,
          0., 28., 252., 7., 0., 80., 8., 113., 124., 220., 143., 251.,
          48., 196., 253., 255., 239., 15., 7., 128., 239., 31., 12., 0.,
          7., 224., 136., 142., 254., 124., 0., 0., 0., 240., 255., 143.,
          63. ]
      - [ 192., 31., 0., 56., 190., 17., 192., 255., 255., 5., 82., 2.,
          0., 128., 255., 15., 30., 160., 255., 241., 62., 255., 7., 0.,
          0., 0., 0., 124., 132., 0., 192., 255., 223., 240., 26., 254.,
          224., 1., 175., 253., 249., 251., 255., 1., 16., 24., 16., 0.,
          6., 224., 32., 14., 255., 251., 1., 2., 0., 224., 121., 255.,
          3. ]
      - [ 7., 18., 254., 59., 142., 0., 56., 208., 9., 66., 244., 4., 2.,
          67., 136., 244., 255., 251., 127., 250., 15., 254., 240., 135.,
          15., 30., 28., 0., 2., 0., 94., 87., 10., 0., 184., 114., 3.,
          20., 0., 0., 206., 11., 229., 33., 255., 138., 31., 240., 7.,
          252., 128., 15., 40., 128., 0., 0., 0., 224., 123., 255., 60. ]
      - [ 0., 8., 114., 56., 30., 0., 192., 126., 13., 250., 180., 136.,
          199., 241., 255., 7., 62., 128., 63., 240., 7., 255., 5., 128.,
          0., 0., 0., 0., 2., 0., 200., 215., 95., 0., 184., 254., 0.,
          80., 59., 141., 250., 11., 253., 33., 116., 11., 30., 234.,
          135., 255., 240., 15., 23., 0., 0., 0., 0., 252., 255., 255.,
          8. ]
      - [ 225., 93., 67., 34., 201., 153., 252., 62., 223., 255., 228.,
          73., 38., 201., 255., 48., 0., 49., 64., 4., 136., 128., 104.,
          196., 17., 35., 34., 154., 231., 136., 255., 157., 31., 98.,
          206., 252., 204., 255., 255., 249., 17., 49., 255., 127., 68.,
          94., 16., 1., 68., 128., 168., 136., 106., 254., 253., 243.,
          3., 252., 255., 10., 37. ]
      - [ 129., 6., 126., 56., 142., 0., 64., 63., 228., 63., 18., 4.,
          0., 0., 255., 207., 255., 225., 127., 240., 15., 255., 32.,
          128., 0., 0., 0., 0., 2., 0., 193., 66., 11., 208., 18., 90.,
          183., 5., 173., 182., 104., 109., 181., 140., 15., 152., 31.,
          224., 7., 240., 0., 15., 0., 0., 0., 0., 0., 240., 253., 255.,
          11. ]
      - [ 65., 233., 13., 4., 0., 48., 193., 36., 144., 220., 201., 3.,
          207., 115., 238., 255., 1., 96., 0., 0., 0., 0., 0., 128., 35.,
          70., 68., 0., 136., 59., 224., 29., 17., 0., 192., 136., 140.,
          120., 230., 17., 33., 34., 154., 255., 140., 62., 0., 128.,
          144., 30., 243., 33., 13., 73., 254., 255., 255., 231., 73.,
          255., 60. ]
      - [ 158., 2., 250., 255., 183., 0., 3., 137., 36., 1., 31., 254.,
          191., 15., 0., 88., 236., 14., 187., 97., 119., 118., 247.,
          127., 4., 156., 220., 5., 0., 112., 193., 119., 227., 221.,
          48., 19., 187., 1., 0., 6., 238., 111., 4., 128., 31., 248.,
          31., 255., 71., 127., 104., 135., 52., 0., 0., 0., 160., 241.,
          255., 79., 15. ]
      - [ 152., 2., 178., 252., 55., 0., 7., 193., 54., 4., 95., 3., 0.,
          152., 255., 33., 239., 230., 255., 255., 255., 119., 19., 0.,
          0., 28., 220., 15., 0., 240., 128., 98., 226., 220., 22., 3.,
          185., 13., 1., 247., 239., 79., 4., 128., 31., 56., 14., 130.,
          195., 249., 248., 135., 27., 0., 0., 0., 224., 251., 255., 63.,
          32. ]
      - [ 161., 242., 105., 52., 136., 29., 24., 193., 191., 1., 3., 12.,
          0., 0., 254., 95., 31., 192., 7., 248., 160., 15., 112., 128.,
          1., 2., 0., 252., 255., 255., 55., 2., 224., 255., 23., 0.,
          255., 7., 0., 255., 254., 1., 84., 132., 2., 65., 225., 31.,
          120., 15., 255., 240., 174., 255., 255., 253., 255., 3., 2.,
          128., 63. ]
      - [ 33., 237., 127., 35., 136., 29., 248., 10., 65., 249., 112.,
          12., 4., 0., 238., 247., 31., 188., 7., 240., 0., 15., 104.,
          128., 1., 0., 0., 252., 255., 255., 127., 197., 13., 17., 232.,
          254., 162., 114., 127., 4., 184., 249., 255., 129., 38., 3.,
          194., 251., 240., 23., 222., 225., 15., 7., 254., 255., 255.,
          255., 135., 0., 62. ]
      - [ 1., 6., 254., 59., 190., 0., 72., 19., 97., 15., 240., 157.,
          3., 0., 240., 39., 254., 206., 255., 255., 255., 127., 247.,
          171., 0., 0., 0., 4., 0., 112., 200., 239., 31., 1., 105., 34.,
          6., 178., 127., 0., 128., 252., 215., 145., 174., 231., 63.,
          255., 135., 244., 16., 15., 9., 0., 0., 0., 0., 240., 255.,
          191., 48. ]
      - [ 160., 231., 7., 0., 0., 238., 95., 59., 105., 239., 240., 0.,
          0., 128., 255., 207., 3., 160., 0., 16., 0., 1., 0., 128., 0.,
          0., 0., 252., 255., 255., 223., 232., 46., 184., 3., 4., 246.,
          191., 255., 254., 221., 253., 11., 2., 240., 11., 0., 0., 0.,
          0., 0., 0., 192., 255., 255., 255., 255., 31., 132., 0., 10. ]
      - [ 160., 255., 3., 0., 128., 255., 183., 255., 255., 223., 129.,
          15., 0., 0., 254., 127., 0., 0., 0., 0., 0., 0., 112., 128.,
          1., 2., 0., 252., 255., 255., 252., 255., 31., 53., 252., 255.,
          239., 127., 127., 0., 250., 3., 252., 1., 192., 255., 0., 0.,
          0., 0., 0., 0., 240., 255., 255., 255., 255., 3., 6., 0., 55. ]
      - [ 33., 143., 15., 4., 0., 217., 124., 26., 77., 255., 114., 128.,
          193., 248., 255., 199., 31., 248., 7., 0., 0., 0., 16., 0., 0.,
          2., 0., 216., 247., 204., 255., 194., 159., 176., 17., 54.,
          225., 15., 152., 253., 249., 251., 255., 27., 115., 192., 2.,
          159., 128., 17., 48., 239., 15., 152., 249., 227., 227., 255.,
          255., 127., 0. ]
      - [ 224., 237., 3., 0., 0., 221., 60., 90., 223., 255., 180., 128.,
          229., 249., 255., 79., 3., 0., 0., 24., 0., 1., 0., 128., 145.,
          33., 35., 219., 247., 206., 63., 128., 100., 246., 207., 254.,
          196., 119., 255., 253., 177., 248., 255., 127., 34., 3., 0.,
          100., 240., 15., 254., 192., 71., 255., 253., 251., 251., 255.,
          127., 34., 3. ]
      - [ 1., 12., 254., 59., 14., 0., 0., 0., 224., 7., 240., 4., 0.,
          0., 254., 255., 255., 255., 255., 247., 255., 255., 127., 128.,
          0., 0., 0., 0., 136., 17., 8., 2., 128., 0., 48., 68., 119.,
          13., 0., 8., 16., 221., 175., 107., 240., 218., 31., 254.,
          135., 247., 240., 15., 15., 0., 0., 193., 195., 243., 255.,
          255., 55. ]
      - [ 128., 239., 3., 0., 0., 0., 0., 178., 249., 207., 244., 241.,
          251., 255., 255., 55., 0., 0., 0., 0., 0., 0., 0., 0., 0., 0.,
          0., 160., 56., 255., 8., 136., 172., 251., 71., 100., 255.,
          47., 178., 200., 16., 253., 203., 122., 240., 11., 254., 159.,
          255., 255., 255., 255., 207., 127., 255., 255., 255., 159., 3.,
          192., 62. ]
      - [ 225., 255., 77., 38., 128., 255., 184., 239., 247., 13., 0.,
          163., 84., 148., 47., 231., 23., 113., 69., 140., 0., 0., 80.,
          68., 17., 34., 3., 252., 255., 15., 255., 250., 53., 126.,
          197., 143., 253., 234., 215., 255., 29., 60., 14., 2., 0.,
          117., 225., 1., 56., 8., 79., 112., 192., 255., 255., 255.,
          63., 13., 0., 0., 15. ]
      - [ 225., 255., 77., 38., 128., 255., 120., 159., 225., 15., 0.,
          188., 28., 6., 0., 193., 29., 113., 71., 140., 8., 0., 112.,
          228., 17., 34., 0., 252., 255., 15., 255., 232., 47., 250.,
          66., 7., 252., 231., 255., 255., 29., 252., 13., 2., 0., 202.,
          241., 102., 60., 8., 7., 112., 192., 255., 255., 255., 31.,
          12., 0., 48., 1. ]
      - [ 64., 232., 131., 200., 114., 230., 199., 56., 0., 252., 255.,
          255., 56., 158., 17., 32., 32., 130., 136., 147., 241., 25.,
          143., 152., 227., 199., 199., 33., 120., 255., 192., 25., 30.,
          6., 200., 224., 12., 96., 248., 243., 1., 0., 224., 255., 255.,
          39., 192., 33., 248., 4., 158., 241., 137., 79., 255., 255.,
          255., 63., 3., 0., 48. ]
      - [ 64., 232., 131., 193., 112., 238., 199., 24., 12., 251., 255.,
          60., 8., 2., 0., 52., 0., 14., 128., 19., 240., 1., 15., 184.,
          227., 199., 199., 227., 121., 255., 193., 25., 30., 130., 200.,
          176., 12., 115., 248., 225., 1., 64., 248., 255., 255., 224.,
          225., 51., 248., 0., 31., 240., 137., 127., 255., 255., 255.,
          31., 2., 0., 48. ]
      - [ 64., 232., 129., 192., 113., 238., 199., 120., 20., 232., 126.,
          18., 8., 2., 192., 62., 0., 6., 128., 7., 240., 0., 31., 120.,
          224., 193., 195., 227., 121., 255., 192., 15., 250., 130., 78.,
          144., 4., 33., 232., 160., 1., 208., 235., 123., 255., 56.,
          224., 65., 120., 8., 15., 240., 240., 127., 254., 253., 255.,
          3., 2., 0., 15. ]
      - [ 225., 231., 15., 6., 128., 255., 255., 255., 247., 21., 1.,
          58., 28., 132., 0., 231., 17., 112., 4., 12., 0., 0., 112.,
          112., 1., 131., 3., 252., 255., 255., 255., 251., 31., 254.,
          204., 223., 252., 233., 255., 255., 127., 126., 6., 0., 0.,
          248., 225., 127., 248., 15., 31., 240., 128., 127., 254., 253.,
          255., 31., 2., 0., 8. ]
      - [ 225., 239., 15., 7., 128., 255., 127., 151., 227., 27., 129.,
          124., 12., 2., 0., 224., 1., 120., 0., 12., 0., 0., 96., 248.,
          225., 195., 131., 255., 255., 255., 255., 253., 41., 127.,
          194., 15., 254., 244., 255., 31., 44., 60., 20., 132., 0.,
          139., 225., 97., 120., 4., 15., 240., 128., 127., 254., 255.,
          255., 31., 2., 0., 62. ]
      - [ 160., 239., 15., 6., 193., 255., 127., 159., 239., 3., 182.,
          128., 199., 241., 255., 199., 1., 126., 128., 7., 192., 0.,
          13., 120., 224., 193., 195., 255., 255., 255., 94., 170., 141.,
          106., 82., 109., 213., 166., 134., 254., 53., 252., 3., 126.,
          0., 207., 224., 39., 248., 1., 63., 240., 131., 127., 254.,
          255., 255., 31., 134., 0., 0. ]
      - [ 0., 30., 2., 0., 128., 0., 32., 243., 121., 6., 252., 253.,
          255., 95., 17., 96., 0., 0., 0., 0., 0., 0., 128., 7., 30.,
          60., 60., 12., 0., 0., 96., 246., 26., 0., 248., 255., 251.,
          157., 33., 132., 126., 95., 135., 32., 220., 222., 31., 224.,
          3., 0., 0., 4., 48., 128., 0., 0., 0., 240., 253., 255., 56. ]
      - [ 255., 16., 252., 255., 255., 255., 191., 218., 29., 234., 244.,
          140., 199., 48., 238., 71., 255., 223., 255., 255., 255., 255.,
          255., 255., 255., 255., 215., 227., 123., 255., 255., 223.,
          206., 151., 251., 118., 0., 117., 56., 160., 64., 193., 253.,
          57., 247., 202., 31., 254., 135., 255., 240., 15., 127., 152.,
          97., 0., 0., 240., 253., 255., 0. ]
      - [ 216., 15., 114., 56., 30., 0., 192., 56., 0., 254., 255., 1.,
          0., 192., 255., 63., 254., 161., 127., 240., 15., 255., 1., 0.,
          0., 60., 60., 0., 2., 0., 192., 229., 63., 112., 2., 12., 242.,
          254., 127., 222., 255., 255., 223., 166., 0., 15., 30., 128.,
          7., 252., 240., 15., 11., 0., 0., 0., 0., 248., 255., 255.,
          52. ]
      - [ 33., 12., 14., 4., 128., 17., 184., 64., 16., 232., 248., 3.,
          0., 128., 255., 223., 31., 224., 7., 248., 0., 15., 48., 0.,
          0., 0., 0., 24., 103., 128., 63., 1., 64., 41., 44., 133., 0.,
          208., 122., 10., 255., 215., 11., 127., 240., 255., 1., 96.,
          0., 0., 0., 0., 128., 127., 254., 253., 255., 255., 255., 255.,
          3. ]
      - [ 193., 16., 252., 255., 255., 1., 192., 107., 1., 136., 112.,
          15., 4., 128., 238., 143., 255., 255., 255., 255., 255., 255.,
          111., 128., 1., 2., 0., 12., 0., 0., 161., 47., 242., 159.,
          77., 1., 20., 160., 192., 34., 1., 204., 2., 216., 187., 180.,
          31., 224., 7., 248., 0., 15., 32., 128., 0., 0., 0., 228.,
          249., 255., 1. ]
      - [ 160., 23., 112., 56., 142., 1., 112., 189., 178., 7., 15., 3.,
          0., 0., 255., 63., 254., 225., 127., 248., 15., 255., 48., 0.,
          0., 0., 0., 28., 134., 0., 181., 99., 245., 216., 21., 9.,
          177., 138., 4., 246., 255., 255., 19., 196., 15., 117., 30.,
          128., 7., 240., 0., 15., 112., 0., 0., 0., 0., 224., 255.,
          255., 55. ]
      - [ 159., 6., 252., 255., 255., 0., 96., 59., 224., 7., 112., 14.,
          0., 0., 254., 199., 255., 255., 255., 255., 255., 255., 127.,
          128., 0., 0., 0., 12., 2., 0., 240., 237., 27., 1., 32., 67.,
          114., 244., 127., 0., 92., 253., 3., 32., 212., 218., 31.,
          224., 7., 248., 0., 15., 48., 128., 0., 0., 0., 240., 253.,
          255., 32. ]
      - [ 0., 0., 6., 0., 0., 0., 120., 50., 89., 254., 252., 141., 195.,
          113., 238., 127., 9., 0., 2., 72., 0., 4., 32., 128., 0., 0.,
          0., 0., 2., 0., 222., 68., 46., 145., 35., 114., 43., 95.,
          121., 0., 202., 203., 255., 49., 255., 203., 1., 30., 128., 7.,
          240., 0., 47., 248., 224., 193., 195., 243., 253., 255., 63. ]
      - [ 165., 18., 112., 188., 143., 1., 152., 219., 125., 10., 240.,
          140., 64., 144., 239., 7., 254., 193., 127., 250., 239., 255.,
          240., 135., 9., 2., 0., 12., 2., 0., 159., 111., 238., 223.,
          127., 50., 35., 16., 1., 4., 136., 236., 231., 128., 255., 65.,
          30., 158., 135., 245., 240., 15., 127., 128., 1., 0., 0., 224.,
          253., 255., 32. ]
      - [ 192., 255., 3., 8., 14., 0., 96., 63., 240., 239., 254., 3.,
          0., 128., 255., 223., 31., 254., 135., 247., 240., 15., 15.,
          0., 0., 0., 0., 224., 253., 255., 240., 239., 63., 232., 4.,
          0., 208., 191., 255., 250., 245., 255., 3., 254., 136., 60.,
          224., 33., 120., 0., 15., 240., 224., 255., 255., 255., 255.,
          23., 128., 0., 31. ]
      - [ 32., 252., 1., 0., 136., 17., 176., 223., 255., 83., 133., 0.,
          0., 128., 255., 119., 31., 158., 135., 255., 240., 15., 31.,
          0., 0., 2., 0., 224., 123., 255., 126., 212., 8., 4., 184.,
          126., 234., 87., 63., 141., 254., 3., 252., 35., 116., 11.,
          224., 0., 56., 0., 15., 240., 240., 255., 255., 255., 255., 3.,
          0., 0., 39. ]
      - [ 190., 23., 244., 251., 127., 0., 152., 208., 30., 194., 239.,
          1., 0., 136., 17., 248., 255., 159., 255., 247., 255., 255.,
          159., 7., 30., 60., 60., 28., 132., 0., 94., 113., 84., 0.,
          169., 239., 0., 210., 127., 223., 255., 143., 66., 144., 170.,
          231., 31., 158., 135., 247., 240., 15., 127., 128., 1., 2., 0.,
          224., 249., 255., 30. ]
      - [ 71., 8., 254., 255., 15., 17., 200., 94., 0., 248., 129., 12.,
          4., 0., 238., 143., 255., 255., 255., 255., 255., 255., 228.,
          128., 3., 2., 0., 0., 0., 0., 203., 29., 111., 7., 192., 0.,
          12., 112., 190., 1., 2., 0., 252., 255., 87., 202., 31., 254.,
          135., 255., 240., 15., 0., 0., 0., 0., 0., 252., 253., 255.,
          11. ]
      - [ 254., 3., 242., 251., 127., 0., 240., 58., 68., 255., 126., 0.,
          4., 128., 239., 31., 254., 191., 255., 247., 255., 255., 15.,
          128., 14., 20., 60., 8., 2., 0., 191., 64., 122., 154., 7.,
          18., 32., 255., 255., 246., 201., 255., 231., 129., 255., 24.,
          30., 158., 135., 247., 240., 15., 63., 128., 0., 0., 0., 244.,
          253., 255., 63. ]
      - [ 0., 30., 112., 56., 142., 17., 24., 192., 63., 132., 120., 7.,
          0., 128., 255., 71., 255., 159., 255., 255., 255., 255., 127.,
          0., 0., 2., 0., 0., 2., 0., 63., 2., 224., 251., 95., 236.,
          65., 10., 128., 254., 145., 254., 223., 119., 226., 39., 30.,
          128., 7., 248., 0., 15., 112., 128., 1., 0., 0., 252., 249.,
          255., 32. ]
      - [ 65., 237., 15., 4., 0., 0., 216., 50., 0., 252., 248., 15., 4.,
          0., 238., 223., 31., 224., 7., 248., 0., 15., 32., 128., 1.,
          0., 0., 224., 127., 255., 222., 140., 53., 2., 68., 128., 198.,
          122., 255., 72., 1., 250., 255., 127., 170., 247., 1., 96., 0.,
          8., 0., 0., 128., 127., 254., 253., 255., 255., 247., 38., 7. ]
      - [ 160., 6., 46., 0., 128., 9., 252., 189., 160., 5., 15., 134.,
          195., 241., 255., 183., 31., 224., 7., 245., 0., 15., 16., 0.,
          0., 0., 0., 252., 127., 255., 247., 118., 151., 221., 180.,
          187., 187., 223., 69., 22., 254., 47., 18., 132., 15., 116.,
          30., 158., 135., 255., 240., 15., 63., 0., 0., 0., 0., 252.,
          255., 255., 8. ]
      - [ 161., 242., 143., 199., 241., 255., 191., 209., 63., 0., 254.,
          0., 4., 128., 255., 255., 31., 222., 135., 255., 240., 15.,
          95., 96., 0., 2., 3., 253., 255., 255., 222., 251., 159., 128.,
          88., 183., 81., 1., 128., 255., 85., 220., 34., 90., 241., 96.,
          224., 31., 248., 4., 255., 240., 239., 255., 255., 253., 255.,
          19., 132., 0., 56. ]
      - [ 161., 22., 118., 56., 142., 1., 56., 153., 236., 7., 255., 8.,
          4., 128., 191., 245., 255., 161., 127., 240., 14., 255., 112.,
          0., 0., 0., 0., 28., 128., 0., 127., 102., 15., 81., 113.,
          123., 255., 159., 61., 80., 236., 253., 87., 148., 15., 195.,
          1., 96., 0., 8., 0., 0., 240., 7., 30., 62., 60., 8., 6., 0.,
          56. ]
      - [ 71., 24., 252., 127., 142., 17., 224., 98., 65., 152., 192.,
          15., 4., 0., 0., 195., 255., 255., 255., 255., 191., 255.,
          241., 135., 31., 2., 0., 0., 2., 0., 240., 223., 251., 7., 96.,
          0., 7., 48., 128., 0., 0., 0., 188., 229., 205., 94., 31.,
          128., 7., 248., 0., 15., 96., 128., 1., 0., 0., 224., 249.,
          255., 0. ]
      - [ 216., 3., 240., 252., 62., 0., 192., 237., 2., 0., 11., 2., 0.,
          128., 2., 3., 254., 131., 255., 255., 255., 255., 15., 0., 0.,
          60., 60., 28., 0., 0., 128., 243., 255., 252., 15., 11., 16.,
          192., 199., 255., 255., 47., 0., 128., 8., 119., 30., 128., 7.,
          240., 0., 15., 112., 128., 0., 0., 0., 224., 255., 255., 0. ]
      - [ 248., 7., 114., 248., 127., 0., 248., 127., 24., 244., 255.,
          3., 0., 136., 95., 8., 254., 161., 255., 247., 255., 255., 15.,
          0., 0., 60., 60., 28., 132., 0., 255., 225., 95., 80., 9.,
          235., 160., 242., 127., 255., 255., 255., 215., 129., 46., 39.,
          30., 128., 7., 240., 0., 15., 48., 0., 0., 0., 0., 252., 253.,
          255., 10. ]
      - [ 1., 8., 62., 4., 0., 0., 248., 0., 0., 0., 244., 13., 0., 0.,
          238., 247., 31., 224., 7., 248., 0., 15., 112., 128., 1., 0.,
          0., 0., 128., 0., 218., 175., 204., 0., 24., 0., 0., 0., 0.,
          0., 148., 245., 203., 126., 240., 207., 1., 96., 0., 8., 0.,
          0., 0., 80., 252., 253., 255., 255., 255., 255., 53. ]
      - [ 192., 31., 0., 0., 8., 17., 160., 255., 255., 183., 11., 15.,
          4., 128., 255., 39., 2., 128., 7., 240., 0., 15., 0., 0., 0.,
          2., 0., 28., 134., 0., 160., 255., 255., 255., 255., 255.,
          255., 111., 239., 255., 123., 3., 188., 67., 216., 252., 0.,
          0., 0., 0., 0., 0., 240., 255., 255., 255., 223., 227., 121.,
          255., 37. ]
      - [ 190., 22., 240., 251., 255., 0., 152., 227., 125., 0., 240.,
          7., 0., 128., 17., 32., 254., 159., 255., 255., 255., 255.,
          143., 7., 30., 60., 60., 28., 2., 0., 131., 100., 245., 89.,
          37., 171., 178., 154., 85., 66., 188., 255., 3., 144., 170.,
          39., 30., 128., 7., 248., 0., 15., 96., 128., 1., 0., 0., 252.,
          249., 255., 48. ]
      - [ 190., 18., 240., 255., 255., 1., 128., 197., 174., 0., 143.,
          132., 195., 247., 238., 127., 254., 31., 255., 255., 255.,
          255., 255., 127., 0., 56., 252., 253., 2., 0., 10., 71., 227.,
          221., 187., 26., 163., 16., 5., 4., 238., 107., 52., 128., 15.,
          72., 30., 30., 135., 255., 240., 15., 127., 120., 0., 0., 0.,
          224., 255., 255., 31. ]
      - [ 10., 2., 50., 24., 134., 0., 1., 145., 186., 6., 239., 253.,
          255., 213., 10., 245., 228., 0., 56., 32., 7., 126., 241.,
          127., 14., 28., 92., 4., 0., 80., 88., 71., 93., 17., 63.,
          234., 34., 30., 113., 4., 238., 171., 247., 129., 239., 231.,
          31., 159., 3., 120., 176., 7., 59., 0., 0., 0., 224., 242.,
          255., 191., 48. ]
      - [ 167., 18., 252., 255., 253., 15., 184., 235., 93., 8., 112.,
          14., 135., 0., 236., 95., 255., 31., 255., 255., 255., 255.,
          255., 255., 13., 17., 16., 252., 67., 240., 127., 111., 214.,
          155., 125., 243., 54., 185., 73., 4., 8., 204., 39., 1., 255.,
          240., 60., 28., 7., 226., 225., 31., 254., 240., 1., 0., 0.,
          192., 253., 255., 31. ]
      - [ 31., 28., 252., 255., 95., 16., 240., 110., 17., 248., 88.,
          143., 199., 113., 238., 255., 255., 255., 255., 207., 255.,
          248., 250., 255., 255., 255., 63., 0., 2., 0., 119., 173., 26.,
          0., 232., 221., 2., 248., 110., 0., 69., 118., 3., 127., 217.,
          252., 31., 254., 135., 255., 240., 15., 111., 128., 1., 0., 0.,
          228., 121., 255., 24. ]
      - [ 165., 22., 124., 56., 142., 17., 72., 181., 242., 23., 143.,
          7., 0., 128., 3., 224., 255., 225., 127., 240., 15., 255.,
          240., 135., 28., 56., 56., 28., 134., 0., 75., 80., 5., 84.,
          161., 43., 251., 223., 21., 85., 254., 43., 84., 132., 15.,
          165., 31., 224., 135., 244., 0., 15., 80., 0., 1., 2., 0.,
          236., 121., 255., 48. ]
      - [ 7., 16., 124., 60., 142., 17., 112., 19., 97., 10., 240., 9.,
          4., 0., 0., 218., 255., 225., 127., 248., 15., 255., 240.,
          135., 31., 6., 0., 0., 2., 0., 252., 174., 136., 3., 112., 1.,
          87., 6., 0., 0., 0., 220., 3., 122., 240., 11., 30., 192., 7.,
          249., 32., 15., 112., 128., 0., 0., 0., 224., 255., 255., 1. ]
      - [ 0., 15., 112., 248., 62., 0., 128., 195., 61., 0., 112., 3.,
          0., 128., 255., 94., 254., 135., 255., 249., 255., 255., 15.,
          0., 0., 0., 0., 0., 0., 48., 0., 0., 224., 234., 30., 149.,
          65., 0., 128., 254., 85., 254., 43., 126., 208., 56., 8., 0.,
          7., 232., 0., 14., 112., 128., 0., 0., 0., 160., 253., 255.,
          26. ]
      - [ 65., 24., 126., 60., 14., 0., 224., 64., 0., 248., 164., 12.,
          4., 0., 238., 255., 255., 193., 127., 248., 15., 255., 112.,
          128., 1., 2., 0., 0., 2., 0., 184., 31., 234., 135., 234., 80.,
          10., 113., 40., 1., 66., 1., 252., 107., 253., 216., 31., 240.,
          7., 248., 0., 7., 0., 0., 0., 0., 0., 240., 255., 255., 63. ]
      - [ 71., 16., 252., 127., 142., 17., 128., 199., 3., 0., 0., 14.,
          4., 0., 224., 255., 255., 223., 255., 255., 255., 255., 240.,
          135., 31., 2., 0., 24., 6., 0., 129., 63., 224., 143., 248.,
          1., 15., 64., 0., 1., 2., 0., 0., 168., 93., 216., 31., 224.,
          7., 248., 0., 15., 48., 128., 0., 0., 0., 224., 121., 255.,
          33. ]
      - [ 30., 18., 240., 249., 254., 17., 0., 137., 231., 37., 18., 6.,
          0., 0., 0., 24., 254., 175., 255., 243., 127., 255., 135.,
          130., 31., 62., 60., 0., 2., 0., 1., 2., 224., 251., 95., 151.,
          53., 9., 128., 126., 5., 252., 3., 72., 185., 52., 30., 160.,
          7., 240., 0., 15., 112., 128., 1., 2., 0., 224., 121., 255.,
          7. ]
      - [ 158., 7., 114., 120., 126., 0., 96., 29., 232., 71., 191., 12.,
          4., 128., 17., 32., 254., 163., 255., 245., 159., 255., 143.,
          7., 30., 60., 60., 12., 0., 0., 240., 254., 47., 184., 2., 87.,
          255., 231., 175., 255., 92., 125., 133., 32., 85., 202., 31.,
          224., 7., 240., 0., 15., 16., 0., 0., 0., 0., 248., 255., 255.,
          55. ]
      - [ 231., 16., 252., 124., 140., 17., 224., 163., 97., 4., 64.,
          127., 4., 0., 16., 200., 253., 103., 255., 233., 63., 238.,
          241., 159., 29., 58., 0., 60., 2., 0., 128., 111., 241., 223.,
          118., 3., 55., 160., 129., 6., 12., 44., 2., 128., 13., 252.,
          63., 224., 15., 224., 0., 14., 240., 128., 1., 2., 0., 0.,
          248., 255., 63. ]
      - [ 55., 16., 252., 255., 255., 157., 56., 0., 113., 239., 248.,
          159., 5., 0., 230., 207., 255., 255., 255., 239., 255., 254.,
          255., 255., 253., 3., 3., 254., 127., 255., 127., 12., 16., 3.,
          224., 242., 175., 127., 121., 0., 0., 128., 246., 209., 255.,
          247., 31., 238., 135., 251., 48., 15., 3., 128., 0., 0., 0.,
          244., 253., 255., 0. ]
      - [ 56., 30., 2., 16., 254., 0., 55., 192., 63., 6., 255., 7., 0.,
          8., 255., 48., 4., 0., 1., 112., 255., 255., 31., 0., 0., 0.,
          252., 23., 132., 15., 62., 0., 224., 255., 159., 255., 33.,
          14., 0., 255., 255., 139., 199., 33., 254., 95., 0., 0., 0.,
          192., 8., 140., 251., 255., 255., 1., 32., 112., 255., 15.,
          52. ]
      - [ 24., 22., 240., 248., 254., 0., 0., 225., 61., 7., 126., 7.,
          0., 0., 255., 32., 238., 130., 255., 241., 255., 255., 63., 3.,
          0., 0., 92., 44., 2., 48., 64., 103., 158., 153., 60., 243.,
          51., 31., 1., 0., 254., 255., 7., 1., 255., 252., 28., 0., 7.,
          224., 0., 14., 112., 128., 0., 0., 0., 224., 254., 255., 0. ]
      - [ 33., 14., 126., 16., 132., 1., 120., 129., 224., 7., 240., 15.,
          0., 0., 254., 231., 159., 97., 7., 224., 0., 14., 112., 128.,
          0., 0., 0., 28., 199., 0., 127., 198., 156., 1., 48., 230.,
          243., 30., 0., 0., 252., 255., 207., 115., 238., 255., 3., 32.,
          0., 0., 0., 1., 0., 0., 0., 246., 227., 251., 255., 255., 52. ]
      - [ 176., 2., 126., 62., 142., 0., 56., 153., 44., 7., 127., 0.,
          0., 136., 31., 240., 255., 249., 127., 252., 15., 255., 48.,
          3., 4., 24., 60., 12., 0., 0., 255., 102., 150., 153., 49.,
          51., 59., 15., 0., 102., 238., 207., 3., 128., 255., 33., 14.,
          128., 3., 240., 8., 143., 48., 0., 0., 0., 0., 240., 255., 15.,
          26. ]
      - [ 165., 2., 126., 62., 142., 0., 120., 153., 168., 7., 255., 8.,
          4., 128., 31., 192., 255., 121., 119., 228., 14., 238., 240.,
          71., 4., 24., 24., 28., 1., 0., 255., 102., 140., 25., 51.,
          99., 187., 159., 1., 6., 238., 207., 5., 128., 127., 131., 31.,
          226., 199., 120., 0., 7., 48., 0., 0., 0., 0., 240., 255., 31.,
          8. ]
      - [ 64., 232., 3., 0., 16., 238., 71., 0., 0., 248., 255., 140.,
          199., 113., 238., 63., 0., 2., 128., 0., 48., 0., 23., 120.,
          224., 195., 195., 227., 121., 255., 128., 8., 224., 6., 67.,
          0., 13., 38., 128., 193., 0., 0., 249., 255., 255., 207., 225.,
          127., 248., 15., 255., 240., 143., 127., 254., 253., 255., 15.,
          0., 0., 63. ]
      - [ 64., 232., 131., 192., 112., 238., 199., 48., 0., 248., 255.,
          141., 199., 113., 238., 63., 0., 2., 128., 3., 112., 1., 15.,
          248., 227., 199., 199., 227., 121., 255., 192., 25., 30., 6.,
          196., 128., 12., 120., 254., 225., 1., 0., 248., 255., 255.,
          55., 224., 125., 248., 15., 255., 240., 142., 127., 254., 255.,
          255., 31., 6., 0., 63. ]
      - [ 64., 233., 131., 192., 112., 238., 199., 112., 16., 248., 255.,
          143., 199., 113., 238., 63., 0., 6., 128., 1., 240., 0., 15.,
          248., 227., 199., 199., 227., 121., 255., 192., 29., 28., 6.,
          232., 224., 12., 112., 255., 65., 3., 0., 252., 255., 255.,
          167., 225., 127., 248., 7., 223., 240., 141., 127., 254., 255.,
          255., 31., 6., 0., 62. ]
      - [ 64., 232., 131., 64., 16., 238., 199., 0., 0., 248., 255.,
          140., 199., 113., 238., 63., 0., 2., 128., 3., 112., 0., 7.,
          248., 227., 199., 195., 227., 121., 255., 192., 29., 62., 7.,
          224., 0., 14., 114., 255., 1., 2., 0., 252., 255., 255., 103.,
          224., 31., 248., 15., 255., 240., 143., 127., 254., 255., 255.,
          31., 0., 0., 63. ]
      - [ 65., 232., 3., 0., 0., 238., 7., 64., 0., 248., 255., 128.,
          199., 113., 238., 63., 0., 2., 128., 1., 48., 0., 115., 248.,
          225., 195., 195., 227., 121., 255., 64., 29., 0., 6., 232., 0.,
          12., 112., 248., 1., 0., 0., 252., 255., 255., 1., 224., 127.,
          248., 15., 255., 240., 143., 127., 255., 255., 255., 15., 0.,
          0., 63. ]
      - [ 65., 232., 3., 0., 16., 238., 7., 64., 0., 248., 127., 140.,
          199., 113., 238., 63., 0., 6., 128., 1., 48., 0., 71., 248.,
          225., 195., 195., 227., 121., 255., 65., 25., 64., 6., 200.,
          176., 12., 112., 248., 225., 3., 0., 252., 255., 255., 37.,
          224., 31., 248., 15., 255., 240., 143., 127., 254., 253., 255.,
          31., 6., 0., 63. ]
      - [ 225., 239., 15., 4., 0., 255., 255., 126., 223., 255., 15.,
          128., 195., 241., 255., 199., 25., 112., 0., 12., 128., 0.,
          112., 224., 129., 3., 2., 254., 255., 255., 191., 235., 255.,
          250., 7., 127., 240., 143., 255., 255., 253., 255., 255., 142.,
          0., 0., 0., 62., 128., 7., 240., 0., 15., 124., 240., 225.,
          227., 255., 255., 255., 0. ]
      - [ 0., 248., 1., 0., 0., 238., 7., 0., 0., 24., 128., 132., 195.,
          113., 238., 63., 0., 0., 0., 0., 0., 0., 16., 0., 0., 0., 0.,
          224., 121., 255., 0., 2., 224., 1., 48., 0., 3., 0., 0., 0.,
          0., 16., 252., 2., 0., 203., 96., 30., 152., 7., 243., 48.,
          207., 255., 255., 255., 255., 227., 121., 255., 63. ]
      - [ 161., 231., 15., 4., 0., 221., 62., 124., 158., 255., 127.,
          142., 199., 241., 255., 199., 1., 96., 0., 8., 0., 0., 112.,
          128., 1., 2., 0., 240., 255., 255., 63., 64., 223., 245., 191.,
          254., 161., 15., 125., 252., 251., 251., 255., 253., 255.,
          192., 1., 94., 128., 15., 240., 0., 15., 120., 224., 193.,
          195., 255., 255., 255., 0. ]
      - [ 128., 2., 114., 56., 254., 0., 184., 253., 190., 7., 15., 4.,
          0., 0., 255., 31., 254., 158., 191., 247., 247., 127., 15., 0.,
          0., 0., 0., 140., 1., 240., 255., 115., 239., 220., 131., 123.,
          185., 199., 61., 247., 239., 15., 0., 128., 127., 1., 4., 128.,
          7., 240., 64., 15., 22., 0., 0., 0., 0., 248., 255., 255., 11. ]
      - [ 7., 6., 118., 56., 142., 17., 88., 10., 225., 239., 112., 158.,
          7., 0., 224., 15., 252., 129., 127., 240., 15., 255., 240.,
          135., 31., 0., 0., 12., 0., 0., 39., 68., 160., 251., 39., 90.,
          247., 159., 127., 0., 252., 255., 247., 129., 95., 216., 31.,
          236., 7., 251., 96., 15., 0., 128., 0., 0., 0., 252., 253.,
          255., 11. ]
      - [ 216., 3., 2., 88., 62., 0., 193., 255., 62., 0., 127., 3., 0.,
          128., 255., 32., 6., 128., 187., 248., 255., 255., 3., 0., 0.,
          28., 252., 12., 0., 48., 192., 255., 255., 220., 159., 219.,
          49., 0., 128., 255., 239., 79., 4., 128., 223., 56., 0., 0.,
          3., 104., 0., 6., 240., 126., 0., 0., 96., 240., 255., 31.,
          24. ]
      - [ 39., 18., 124., 52., 140., 17., 8., 195., 103., 8., 16., 28.,
          4., 0., 32., 231., 253., 111., 119., 232., 14., 238., 240.,
          255., 29., 2., 0., 28., 6., 0., 193., 255., 10., 31., 248.,
          87., 63., 240., 1., 4., 8., 8., 4., 0., 244., 202., 62., 34.,
          7., 224., 0., 31., 241., 128., 1., 2., 0., 0., 120., 255., 32. ]
      - [ 225., 253., 13., 135., 97., 255., 255., 62., 223., 255., 143.,
          131., 199., 241., 255., 199., 1., 120., 0., 6., 192., 0., 76.,
          112., 225., 195., 131., 251., 255., 255., 255., 152., 31.,
          230., 199., 252., 236., 255., 255., 253., 243., 35., 252.,
          255., 0., 33., 128., 30., 160., 15., 244., 64., 207., 127.,
          255., 255., 243., 255., 127., 255., 0. ]
      - [ 3., 2., 62., 24., 6., 0., 67., 137., 32., 3., 54., 12., 0., 0.,
          136., 247., 254., 174., 191., 243., 103., 127., 247., 129., 1.,
          0., 0., 4., 0., 240., 195., 39., 14., 137., 56., 17., 19.,
          145., 8., 0., 204., 205., 1., 56., 247., 200., 0., 32., 0., 0.,
          0., 0., 128., 67., 30., 61., 62., 14., 0., 128., 60. ]
      - [ 39., 6., 254., 27., 142., 0., 0., 128., 224., 7., 127., 15.,
          4., 0., 32., 195., 255., 63., 118., 0., 0., 238., 240., 135.,
          29., 26., 8., 28., 0., 0., 33., 0., 128., 0., 112., 187., 255.,
          15., 0., 0., 44., 238., 3., 128., 15., 245., 31., 254., 0.,
          24., 0., 1., 0., 0., 0., 0., 192., 249., 255., 255., 0. ]
      - [ 31., 18., 116., 56., 190., 1., 0., 129., 229., 7., 114., 12.,
          4., 0., 176., 224., 254., 141., 127., 240., 111., 255., 247.,
          135., 30., 60., 60., 28., 2., 0., 3., 2., 160., 191., 55., 0.,
          255., 15., 0., 0., 76., 204., 33., 8., 247., 200., 31., 128.,
          7., 248., 0., 15., 112., 128., 1., 2., 0., 224., 121., 255.,
          33. ]
      - [ 0., 31., 96., 56., 158., 17., 32., 183., 251., 6., 128., 1.,
          0., 0., 255., 207., 190., 131., 199., 240., 25., 255., 53., 0.,
          0., 0., 0., 48., 142., 1., 88., 166., 27., 105., 56., 253.,
          211., 159., 102., 8., 244., 255., 27., 126., 0., 126., 16., 0.,
          4., 224., 1., 30., 242., 248., 3., 2., 0., 0., 252., 255., 7. ]
      - [ 218., 15., 114., 56., 142., 0., 192., 127., 29., 252., 252.,
          3., 0., 128., 255., 7., 254., 129., 255., 249., 255., 255.,
          143., 2., 10., 60., 60., 0., 2., 0., 224., 205., 127., 243.,
          47., 2., 34., 112., 127., 4., 120., 251., 255., 129., 221.,
          56., 30., 128., 7., 240., 0., 15., 112., 128., 0., 0., 0.,
          240., 253., 255., 0. ]
      - [ 158., 2., 246., 121., 126., 0., 64., 16., 8., 250., 246., 12.,
          0., 0., 16., 0., 254., 131., 255., 243., 255., 255., 143., 7.,
          30., 60., 60., 28., 0., 0., 200., 245., 14., 16., 34., 102.,
          122., 215., 59., 132., 222., 221., 237., 0., 118., 203., 31.,
          160., 7., 240., 0., 15., 0., 0., 0., 0., 0., 252., 255., 255.,
          10. ]
      - [ 200., 7., 18., 24., 6., 0., 195., 255., 190., 5., 15., 2., 0.,
          224., 255., 62., 6., 128., 27., 112., 7., 119., 0., 0., 0.,
          12., 156., 4., 0., 48., 193., 251., 255., 220., 31., 251.,
          177., 0., 128., 255., 255., 239., 3., 128., 15., 3., 0., 0.,
          3., 96., 0., 6., 240., 126., 0., 0., 224., 243., 255., 239.,
          63. ]
      - [ 224., 23., 112., 56., 238., 1., 248., 255., 127., 7., 240., 0.,
          0., 128., 255., 31., 254., 129., 255., 247., 255., 255., 15.,
          128., 0., 0., 0., 28., 132., 0., 255., 239., 255., 251., 15.,
          127., 176., 182., 255., 254., 253., 253., 3., 128., 6., 11.,
          24., 0., 7., 224., 0., 14., 112., 128., 1., 0., 0., 224., 253.,
          255., 60. ]
      - [ 64., 24., 112., 60., 14., 0., 184., 114., 31., 248., 252., 1.,
          4., 128., 239., 63., 254., 129., 127., 248., 15., 255., 208.,
          0., 1., 6., 0., 0., 0., 0., 126., 155., 222., 6., 254., 246.,
          13., 0., 128., 237., 1., 0., 252., 123., 255., 95., 30., 128.,
          7., 248., 0., 15., 112., 128., 1., 0., 0., 224., 249., 255.,
          55. ]
      - [ 33., 29., 254., 255., 127., 17., 240., 255., 44., 0., 63., 12.,
          4., 0., 64., 15., 254., 191., 255., 247., 255., 255., 127., 0.,
          1., 2., 0., 16., 132., 0., 31., 183., 194., 237., 190., 253.,
          91., 193., 2., 11., 246., 23., 8., 126., 80., 152., 30., 224.,
          7., 240., 0., 15., 112., 0., 0., 2., 0., 248., 255., 255., 1. ]
      - [ 0., 16., 112., 60., 14., 0., 152., 208., 31., 248., 252., 13.,
          4., 128., 238., 55., 254., 129., 127., 248., 15., 255., 80.,
          0., 1., 2., 0., 0., 0., 0., 26., 23., 196., 165., 191., 246.,
          8., 64., 0., 1., 222., 3., 236., 123., 254., 135., 31., 224.,
          7., 248., 0., 15., 96., 128., 1., 0., 0., 236., 123., 255.,
          48. ]
      - [ 30., 22., 240., 249., 254., 17., 0., 199., 247., 5., 1., 254.,
          195., 176., 239., 79., 252., 7., 255., 241., 255., 255., 255.,
          159., 127., 124., 124., 24., 6., 0., 0., 52., 130., 253., 188.,
          191., 251., 217., 8., 0., 254., 70., 0., 140., 25., 240., 31.,
          254., 135., 255., 96., 15., 118., 128., 1., 2., 0., 224., 121.,
          255., 3. ]
      - [ 3., 16., 124., 60., 142., 1., 200., 83., 65., 72., 176., 12.,
          4., 0., 224., 247., 255., 233., 127., 250., 15., 255., 240.,
          135., 11., 2., 0., 0., 2., 0., 203., 79., 232., 19., 122., 0.,
          7., 48., 0., 0., 0., 72., 253., 1., 119., 138., 31., 224., 7.,
          248., 0., 15., 48., 128., 0., 0., 0., 224., 253., 255., 8. ]
      - [ 7., 16., 252., 63., 142., 17., 136., 195., 79., 8., 16., 28.,
          4., 0., 0., 207., 255., 223., 127., 255., 255., 254., 240.,
          135., 31., 30., 0., 0., 2., 0., 207., 63., 142., 15., 248.,
          113., 31., 16., 0., 0., 2., 0., 0., 58., 119., 139., 31., 224.,
          7., 240., 0., 15., 112., 128., 1., 0., 0., 224., 249., 255.,
          26. ]
      - [ 160., 23., 114., 56., 142., 0., 248., 255., 255., 7., 126., 0.,
          0., 128., 255., 39., 254., 129., 127., 240., 15., 255., 8., 0.,
          0., 0., 0., 28., 2., 0., 255., 255., 31., 152., 58., 255.,
          177., 143., 121., 246., 255., 255., 3., 128., 255., 8., 0., 0.,
          6., 224., 0., 14., 112., 128., 1., 0., 0., 240., 255., 255.,
          48. ]
      - [ 216., 7., 2., 216., 127., 0., 223., 255., 62., 7., 255., 0.,
          0., 248., 255., 48., 6., 128., 49., 250., 255., 255., 15., 0.,
          0., 24., 253., 143., 0., 240., 218., 251., 255., 220., 159.,
          251., 177., 11., 128., 255., 255., 239., 7., 128., 159., 52.,
          0., 0., 3., 224., 136., 142., 255., 127., 0., 0., 32., 240.,
          255., 15., 60. ]
      - [ 160., 23., 112., 56., 142., 0., 192., 237., 150., 16., 15.,
          135., 195., 113., 238., 63., 30., 128., 7., 240., 0., 15., 0.,
          0., 0., 0., 0., 28., 0., 0., 3., 100., 225., 221., 47., 171.,
          178., 208., 125., 22., 238., 239., 22., 132., 15., 245., 30.,
          190., 135., 247., 240., 15., 127., 128., 1., 2., 0., 228.,
          249., 255., 63. ]
      - [ 1., 237., 13., 0., 0., 17., 32., 36., 210., 222., 137., 143.,
          199., 16., 254., 199., 0., 32., 0., 0., 0., 0., 96., 128., 1.,
          2., 0., 0., 140., 1., 32., 16., 17., 102., 212., 204., 207.,
          110., 198., 153., 35., 34., 254., 247., 8., 255., 1., 110.,
          128., 11., 48., 0., 1., 123., 255., 255., 255., 255., 121.,
          255., 0. ]
      - [ 224., 233., 115., 60., 14., 17., 248., 122., 93., 252., 112.,
          15., 4., 128., 238., 7., 30., 160., 7., 244., 0., 15., 78., 0.,
          1., 2., 0., 252., 255., 255., 63., 212., 96., 181., 175., 246.,
          106., 254., 127., 9., 254., 3., 236., 3., 240., 95., 1., 30.,
          128., 15., 240., 0., 15., 248., 244., 233., 251., 255., 253.,
          255., 0. ]
      - [ 254., 23., 240., 251., 255., 0., 192., 255., 223., 255., 164.,
          1., 0., 140., 17., 48., 254., 159., 255., 255., 255., 255.,
          143., 7., 30., 60., 60., 28., 134., 0., 224., 253., 95., 93.,
          173., 187., 186., 250., 127., 87., 255., 175., 20., 128., 15.,
          37., 30., 158., 135., 247., 240., 15., 111., 128., 1., 2., 0.,
          228., 121., 255., 32. ]
      - [ 160., 23., 114., 56., 142., 0., 184., 239., 191., 5., 91., 14.,
          0., 128., 255., 55., 254., 159., 255., 255., 255., 255., 15.,
          128., 0., 0., 0., 28., 0., 0., 55., 34., 242., 255., 191.,
          255., 49., 11., 0., 126., 255., 255., 2., 200., 187., 116., 1.,
          0., 0., 8., 0., 0., 112., 0., 1., 2., 0., 252., 121., 255.,
          60. ]
      - [ 65., 24., 126., 60., 142., 0., 64., 51., 96., 6., 240., 13.,
          4., 0., 238., 7., 255., 223., 255., 255., 255., 255., 127.,
          128., 1., 0., 0., 4., 0., 0., 200., 175., 29., 2., 104., 229.,
          86., 178., 246., 0., 0., 252., 3., 126., 226., 167., 1., 96.,
          0., 8., 0., 0., 48., 0., 0., 0., 0., 252., 255., 255., 0. ]
      - [ 97., 0., 254., 255., 127., 16., 112., 0., 96., 7., 248., 15.,
          4., 0., 238., 143., 255., 255., 255., 247., 255., 255., 127.,
          0., 0., 2., 0., 0., 6., 0., 252., 251., 159., 2., 216., 247.,
          61., 15., 128., 255., 1., 12., 131., 97., 255., 223., 31.,
          224., 7., 248., 0., 15., 0., 0., 0., 0., 0., 248., 255., 255.,
          3. ]
      - [ 39., 18., 126., 63., 143., 0., 56., 201., 52., 5., 126., 14.,
          0., 0., 217., 252., 255., 253., 127., 253., 175., 255., 248.,
          7., 0., 24., 24., 12., 0., 0., 247., 103., 142., 25., 48.,
          115., 51., 7., 0., 0., 206., 207., 1., 0., 255., 202., 31.,
          224., 7., 248., 0., 15., 48., 128., 0., 0., 0., 228., 249.,
          255., 62. ]
      - [ 71., 8., 248., 255., 133., 11., 225., 243., 1., 0., 240., 141.,
          4., 0., 238., 7., 223., 222., 255., 255., 255., 47., 127.,
          200., 33., 3., 0., 252., 73., 255., 240., 255., 253., 39.,
          250., 68., 0., 0., 128., 128., 0., 1., 137., 102., 68., 31.,
          12., 70., 131., 105., 240., 6., 51., 248., 96., 128., 228.,
          243., 255., 255., 1. ]
      - [ 55., 28., 252., 255., 207., 17., 248., 50., 73., 218., 224.,
          253., 11., 2., 0., 255., 253., 127., 255., 207., 223., 252.,
          252., 255., 191., 33., 36., 16., 132., 0., 254., 237., 31.,
          65., 40., 206., 130., 180., 127., 0., 56., 255., 223., 231.,
          12., 223., 31., 254., 7., 254., 192., 15., 36., 128., 0., 0.,
          0., 228., 249., 255., 31. ]
      - [ 7., 0., 254., 63., 14., 0., 72., 0., 96., 15., 240., 12., 4.,
          0., 238., 223., 255., 255., 255., 207., 0., 12., 240., 135.,
          31., 2., 0., 0., 0., 0., 195., 46., 22., 0., 0., 0., 119., 63.,
          0., 0., 0., 252., 99., 88., 255., 225., 31., 254., 135., 63.,
          0., 3., 0., 0., 0., 0., 0., 248., 255., 255., 55. ]
      - [ 39., 6., 254., 63., 142., 1., 48., 128., 224., 7., 120., 159.,
          3., 0., 224., 255., 255., 255., 255., 255., 255., 255., 240.,
          135., 1., 0., 0., 20., 132., 0., 101., 6., 0., 1., 48., 128.,
          35., 24., 0., 0., 252., 255., 183., 193., 143., 252., 31.,
          254., 1., 48., 0., 3., 0., 0., 0., 0., 0., 252., 255., 255.,
          63. ]
      - [ 199., 9., 254., 255., 15., 17., 240., 63., 64., 248., 0., 191.,
          223., 1., 0., 167., 255., 255., 255., 247., 255., 255., 239.,
          135., 31., 62., 0., 0., 0., 0., 224., 255., 31., 2., 232.,
          246., 4., 240., 255., 5., 1., 0., 252., 1., 255., 254., 31.,
          192., 7., 248., 0., 15., 0., 0., 0., 0., 0., 252., 255., 255.,
          37. ]
      - [ 1., 6., 124., 0., 14., 0., 32., 128., 125., 135., 126., 15.,
          0., 0., 254., 231., 255., 129., 7., 240., 0., 15., 112., 0.,
          0., 2., 0., 0., 0., 0., 32., 0., 128., 16., 120., 251., 35.,
          15., 0., 4., 200., 255., 247., 129., 255., 252., 3., 96., 0.,
          0., 0., 0., 0., 0., 0., 2., 0., 252., 123., 255., 32. ]
      - [ 3., 0., 112., 249., 127., 0., 72., 187., 96., 7., 248., 31.,
          12., 2., 240., 39., 254., 129., 255., 243., 127., 255., 255.,
          131., 3., 2., 0., 0., 0., 0., 193., 175., 158., 35., 113.,
          164., 71., 10., 0., 0., 144., 212., 203., 123., 240., 103.,
          30., 158., 135., 255., 240., 15., 15., 0., 0., 0., 0., 240.,
          253., 255., 33. ]
      - [ 1., 14., 254., 4., 0., 0., 64., 0., 224., 175., 88., 15., 0.,
          0., 238., 231., 255., 231., 7., 240., 0., 15., 112., 128., 1.,
          0., 0., 12., 0., 0., 64., 6., 16., 0., 56., 159., 243., 25.,
          64., 0., 254., 255., 3., 79., 153., 252., 3., 122., 0., 8., 0.,
          0., 0., 0., 224., 245., 255., 251., 255., 255., 56. ]
      - [ 95., 8., 254., 255., 127., 0., 160., 64., 17., 248., 240., 15.,
          4., 0., 238., 255., 255., 255., 255., 255., 255., 255., 255.,
          128., 1., 2., 0., 0., 2., 0., 112., 15., 208., 2., 252., 192.,
          0., 32., 128., 0., 1., 0., 254., 255., 255., 254., 31., 224.,
          7., 248., 0., 15., 0., 0., 0., 0., 0., 244., 253., 255., 62. ]
      - [ 32., 6., 124., 58., 14., 0., 56., 193., 190., 7., 15., 3., 0.,
          0., 255., 255., 255., 255., 127., 255., 207., 239., 16., 0.,
          0., 0., 32., 28., 135., 0., 255., 242., 159., 72., 144., 159.,
          249., 15., 0., 255., 255., 39., 0., 204., 9., 248., 31., 160.,
          0., 16., 0., 3., 0., 0., 0., 2., 0., 224., 127., 255., 55. ]
      - [ 254., 3., 242., 255., 127., 0., 240., 255., 28., 0., 127., 3.,
          0., 128., 255., 7., 254., 255., 255., 255., 255., 255., 15.,
          7., 30., 60., 60., 28., 6., 0., 244., 251., 255., 216., 31.,
          11., 16., 128., 133., 255., 255., 239., 3., 132., 15., 48.,
          30., 158., 135., 255., 240., 15., 63., 0., 0., 0., 0., 248.,
          255., 255., 32. ]
      - [ 71., 8., 254., 255., 143., 17., 192., 2., 64., 248., 160.,
          189., 223., 1., 0., 135., 255., 255., 255., 255., 255., 255.,
          224., 135., 31., 2., 0., 0., 0., 0., 128., 73., 97., 82., 64.,
          0., 36., 112., 245., 212., 0., 168., 253., 129., 14., 207.,
          31., 254., 135., 255., 0., 15., 0., 0., 0., 0., 0., 248., 255.,
          255., 0. ]
      - [ 231., 1., 254., 255., 15., 17., 192., 119., 0., 216., 128.,
          189., 79., 0., 32., 167., 255., 255., 255., 255., 255., 248.,
          224., 135., 31., 62., 0., 28., 132., 0., 200., 121., 125., 22.,
          64., 0., 4., 240., 255., 215., 1., 8., 68., 128., 239., 167.,
          31., 254., 135., 255., 176., 7., 0., 0., 0., 0., 0., 248.,
          127., 255., 48. ]
      - [ 1., 6., 126., 56., 14., 0., 0., 128., 184., 7., 239., 15., 0.,
          0., 254., 199., 255., 129., 127., 240., 15., 255., 112., 0.,
          0., 0., 0., 0., 0., 0., 0., 2., 128., 0., 184., 182., 107.,
          11., 0., 101., 251., 203., 252., 17., 251., 225., 3., 0., 0.,
          0., 0., 0., 0., 0., 0., 0., 128., 252., 127., 255., 33. ]
      - [ 65., 24., 124., 60., 14., 17., 120., 42., 224., 255., 88.,
          143., 199., 113., 254., 255., 255., 225., 127., 240., 15.,
          255., 240., 128., 1., 2., 0., 0., 128., 0., 245., 220., 52.,
          3., 69., 128., 239., 127., 215., 0., 1., 152., 254., 81., 170.,
          181., 31., 254., 135., 255., 240., 15., 79., 128., 1., 2., 0.,
          228., 249., 255., 30. ]
      - [ 7., 0., 252., 63., 142., 17., 64., 3., 96., 8., 176., 156., 7.,
          0., 224., 135., 249., 111., 255., 203., 31., 252., 240., 255.,
          255., 0., 0., 4., 0., 0., 192., 13., 100., 3., 97., 0., 6.,
          176., 50., 0., 0., 212., 65., 58., 118., 195., 31., 254., 135.,
          247., 0., 15., 16., 0., 0., 0., 0., 240., 253., 255., 0. ]
      - [ 255., 19., 250., 255., 255., 157., 248., 255., 159., 210.,
          143., 205., 231., 249., 255., 39., 255., 255., 255., 255.,
          255., 255., 255., 247., 221., 59., 51., 223., 231., 136., 63.,
          123., 253., 223., 223., 235., 32., 96., 245., 215., 171., 171.,
          215., 129., 47., 39., 30., 160., 7., 240., 0., 15., 112., 0.,
          1., 2., 0., 60., 14., 0., 8. ]
      - [ 183., 23., 124., 183., 237., 157., 248., 191., 231., 63., 19.,
          234., 116., 156., 55., 129., 255., 253., 127., 231., 142.,
          238., 248., 247., 29., 59., 56., 28., 135., 0., 255., 127.,
          31., 216., 248., 251., 183., 159., 13., 54., 236., 239., 23.,
          132., 15., 48., 30., 192., 7., 248., 0., 15., 112., 128., 1.,
          2., 0., 236., 123., 243., 0. ]
      - [ 161., 231., 255., 191., 142., 17., 88., 10., 97., 47., 112.,
          14., 4., 0., 0., 252., 255., 255., 127., 247., 15., 255., 110.,
          128., 1., 0., 0., 28., 134., 0., 223., 236., 54., 187., 5., 4.,
          255., 191., 219., 42., 84., 220., 43., 10., 240., 224., 227.,
          225., 120., 24., 15., 224., 128., 7., 254., 253., 255., 31.,
          0., 0., 63. ]
      - [ 191., 18., 254., 251., 255., 1., 24., 156., 238., 119., 183.,
          140., 199., 241., 255., 231., 255., 191., 255., 247., 255.,
          255., 127., 248., 225., 195., 195., 255., 123., 255., 95.,
          103., 7., 16., 249., 251., 163., 19., 29., 100., 238., 237.,
          116., 128., 63., 193., 31., 254., 135., 247., 240., 15., 15.,
          0., 1., 2., 0., 252., 255., 255., 48. ]
      - [ 191., 22., 252., 255., 255., 221., 120., 63., 228., 127., 50.,
          204., 229., 152., 119., 192., 255., 255., 255., 255., 255.,
          255., 255., 255., 255., 191., 35., 154., 247., 8., 255., 190.,
          63., 171., 0., 17., 255., 191., 170., 42., 84., 84., 1., 126.,
          241., 72., 31., 192., 7., 248., 0., 15., 112., 128., 1., 0.,
          0., 28., 132., 0., 0. ]
      - [ 154., 2., 50., 24., 142., 0., 224., 189., 32., 2., 255., 205.,
          225., 56., 247., 0., 230., 160., 123., 48., 7., 247., 144., 3.,
          6., 28., 124., 4., 0., 0., 240., 119., 31., 24., 184., 83.,
          59., 149., 33., 6., 238., 15., 5., 128., 255., 154., 14., 160.,
          199., 114., 0., 143., 31., 0., 0., 0., 0., 248., 255., 95.,
          26. ]
      - [ 231., 16., 252., 255., 141., 9., 248., 91., 65., 72., 240.,
          28., 5., 0., 224., 143., 255., 253., 255., 255., 239., 236.,
          240., 247., 159., 3., 0., 156., 2., 0., 223., 111., 238., 27.,
          107., 66., 36., 176., 177., 4., 0., 252., 199., 0., 247., 203.,
          15., 250., 131., 126., 208., 4., 48., 128., 0., 0., 196., 227.,
          249., 255., 26. ]
      - [ 159., 18., 112., 56., 142., 0., 0., 163., 113., 143., 112.,
          119., 8., 78., 16., 48., 236., 225., 123., 112., 15., 247.,
          176., 135., 30., 28., 60., 12., 2., 0., 129., 100., 176., 153.,
          39., 2., 51., 159., 89., 0., 222., 223., 7., 0., 255., 245.,
          30., 158., 7., 240., 16., 15., 63., 128., 0., 0., 0., 240.,
          253., 255., 32. ]
      - [ 37., 18., 252., 63., 140., 1., 248., 179., 96., 0., 240., 13.,
          4., 0., 238., 207., 255., 255., 255., 255., 206., 238., 112.,
          135., 1., 0., 0., 156., 3., 0., 222., 111., 254., 27., 126.,
          2., 39., 48., 1., 0., 8., 252., 7., 0., 255., 255., 31., 236.,
          7., 107., 0., 6., 48., 0., 0., 0., 128., 225., 253., 255., 3. ]
      - [ 32., 30., 244., 251., 255., 1., 240., 221., 46., 3., 191., 0.,
          0., 192., 255., 183., 255., 255., 255., 255., 255., 255., 127.,
          0., 0., 0., 0., 188., 133., 12., 254., 227., 139., 72., 18.,
          91., 241., 5., 128., 255., 255., 255., 131., 164., 69., 74.,
          60., 4., 15., 224., 161., 30., 250., 120., 1., 2., 0., 0.,
          122., 255., 39. ]
      - [ 24., 6., 114., 56., 158., 0., 0., 193., 61., 5., 126., 7., 0.,
          8., 255., 32., 254., 129., 127., 240., 15., 255., 179., 3., 0.,
          0., 60., 12., 2., 0., 33., 70., 224., 153., 62., 211., 35.,
          25., 0., 0., 222., 223., 167., 1., 255., 120., 30., 136., 7.,
          240., 208., 15., 61., 128., 0., 0., 0., 240., 253., 255., 26. ]
      - [ 31., 24., 252., 123., 223., 17., 112., 35., 241., 143., 248.,
          95., 12., 2., 16., 224., 255., 255., 255., 245., 15., 255.,
          249., 135., 31., 60., 60., 0., 2., 0., 240., 222., 26., 2.,
          112., 132., 127., 47., 192., 0., 1., 88., 239., 99., 248.,
          254., 31., 224., 7., 240., 0., 15., 80., 0., 1., 2., 0., 224.,
          249., 255., 48. ]
      - [ 55., 18., 252., 251., 254., 7., 0., 131., 97., 7., 112., 255.,
          11., 2., 144., 240., 253., 63., 255., 231., 255., 254., 255.,
          255., 29., 16., 24., 28., 2., 0., 96., 110., 128., 27., 112.,
          167., 119., 26., 0., 0., 8., 252., 7., 0., 250., 247., 63.,
          222., 143., 255., 241., 31., 242., 144., 1., 0., 0., 0., 248.,
          255., 33. ]
      - [ 229., 2., 126., 63., 143., 0., 248., 59., 0., 231., 254., 7.,
          0., 128., 0., 245., 255., 249., 127., 254., 15., 108., 240.,
          135., 13., 26., 16., 12., 2., 0., 255., 127., 63., 137., 5.,
          0., 50., 223., 121., 0., 206., 207., 3., 249., 255., 245., 30.,
          128., 7., 240., 0., 15., 16., 0., 0., 0., 0., 252., 255., 255.,
          52. ]
      - [ 31., 30., 244., 251., 255., 17., 96., 3., 225., 15., 160.,
          252., 255., 0., 80., 136., 248., 63., 254., 199., 175., 255.,
          255., 255., 255., 63., 60., 20., 132., 0., 101., 236., 10.,
          35., 96., 95., 247., 191., 175., 0., 0., 252., 175., 2., 80.,
          152., 31., 250., 135., 255., 80., 15., 112., 128., 1., 2., 0.,
          224., 249., 255., 26. ]
      - [ 33., 18., 124., 56., 142., 17., 56., 129., 251., 6., 224., 15.,
          0., 0., 224., 223., 255., 1., 127., 224., 15., 254., 240.,
          135., 29., 18., 0., 28., 2., 0., 94., 118., 148., 29., 248.,
          231., 127., 222., 1., 3., 158., 7., 0., 0., 254., 247., 28.,
          32., 7., 224., 0., 15., 116., 128., 1., 2., 0., 224., 121.,
          255., 11. ]
      - [ 222., 13., 254., 255., 127., 0., 112., 32., 16., 252., 254.,
          3., 0., 128., 21., 200., 255., 255., 255., 255., 255., 255.,
          9., 0., 18., 60., 60., 0., 132., 0., 244., 163., 252., 32.,
          28., 4., 0., 0., 128., 255., 183., 183., 11., 127., 224., 247.,
          30., 128., 7., 240., 0., 15., 0., 0., 0., 0., 0., 252., 253.,
          255., 11. ]
      - [ 31., 16., 252., 255., 255., 0., 0., 64., 9., 232., 240., 13.,
          4., 0., 238., 255., 255., 255., 255., 255., 255., 255., 255.,
          131., 1., 2., 0., 0., 2., 0., 90., 10., 128., 2., 120., 226.,
          7., 0., 128., 0., 0., 136., 255., 161., 255., 207., 31., 128.,
          7., 248., 0., 15., 32., 128., 0., 0., 0., 240., 253., 255.,
          37. ]
      - [ 254., 15., 242., 255., 127., 16., 224., 253., 182., 149., 15.,
          3., 0., 128., 17., 0., 254., 159., 255., 255., 255., 255.,
          143., 7., 30., 60., 60., 24., 134., 0., 160., 233., 249., 250.,
          7., 9., 180., 168., 255., 255., 37., 252., 19., 132., 8., 62.,
          31., 192., 7., 248., 0., 15., 0., 0., 0., 0., 0., 252., 253.,
          255., 31. ]
      - [ 31., 16., 252., 255., 255., 1., 64., 2., 64., 173., 112., 14.,
          4., 0., 128., 255., 255., 191., 255., 247., 255., 255., 255.,
          135., 31., 30., 28., 0., 2., 0., 193., 78., 134., 3., 112., 0.,
          111., 15., 128., 0., 0., 200., 255., 1., 255., 224., 31., 224.,
          7., 248., 0., 15., 112., 128., 1., 0., 0., 224., 249., 255.,
          37. ]
      - [ 0., 30., 112., 56., 142., 1., 128., 209., 63., 0., 236., 13.,
          4., 0., 254., 63., 30., 128., 7., 240., 7., 255., 113., 0., 0.,
          0., 0., 4., 0., 0., 8., 231., 220., 61., 191., 255., 3., 16.,
          0., 0., 254., 159., 3., 114., 228., 31., 0., 0., 0., 0., 0.,
          0., 240., 255., 255., 255., 255., 227., 127., 255., 63. ]
      - [ 32., 22., 4., 0., 128., 1., 184., 201., 63., 1., 122., 6., 0.,
          128., 255., 71., 30., 128., 7., 240., 0., 15., 48., 0., 0., 0.,
          0., 28., 132., 0., 55., 34., 130., 136., 252., 255., 17., 9.,
          0., 255., 255., 239., 3., 232., 255., 120., 0., 0., 0., 0., 0.,
          0., 240., 255., 255., 255., 255., 255., 123., 255., 0. ]
      - [ 37., 22., 112., 56., 142., 0., 56., 243., 121., 14., 240., 5.,
          0., 96., 255., 31., 254., 129., 127., 240., 15., 255., 240.,
          131., 14., 16., 28., 8., 2., 0., 63., 70., 252., 27., 127.,
          226., 35., 14., 0., 0., 136., 223., 199., 1., 255., 55., 30.,
          150., 135., 247., 240., 15., 127., 128., 0., 0., 0., 240.,
          253., 255., 32. ]
      - [ 192., 247., 1., 0., 0., 238., 199., 255., 239., 11., 0., 0.,
          0., 0., 238., 31., 0., 0., 0., 0., 0., 0., 0., 0., 0., 0., 0.,
          224., 123., 255., 192., 255., 31., 36., 248., 255., 127., 67.,
          130., 111., 82., 16., 108., 10., 48., 0., 0., 32., 0., 0., 0.,
          0., 240., 255., 255., 255., 255., 3., 0., 0., 7. ]
      - [ 160., 239., 3., 0., 0., 250., 103., 50., 249., 207., 240., 3.,
          0., 128., 255., 247., 30., 160., 1., 48., 0., 15., 0., 0., 0.,
          0., 0., 252., 255., 255., 48., 160., 56., 120., 6., 197., 246.,
          253., 255., 190., 61., 255., 11., 98., 192., 62., 0., 0., 0.,
          0., 0., 0., 192., 255., 255., 255., 255., 31., 0., 0., 60. ]
      - [ 63., 24., 252., 251., 255., 17., 48., 197., 255., 2., 133.,
          29., 4., 0., 224., 63., 254., 159., 255., 247., 255., 255.,
          255., 135., 19., 2., 0., 0., 134., 0., 63., 30., 136., 255.,
          247., 255., 255., 79., 0., 1., 2., 1., 228., 33., 255., 10.,
          30., 158., 135., 247., 240., 15., 127., 128., 1., 2., 0., 224.,
          249., 255., 63. ]
      - [ 190., 22., 246., 251., 255., 1., 128., 197., 190., 0., 15., 8.,
          60., 128., 1., 8., 254., 159., 255., 247., 255., 255., 31., 7.,
          28., 60., 252., 28., 132., 0., 64., 247., 31., 16., 248., 255.,
          169., 0., 5., 255., 255., 43., 84., 128., 2., 37., 31., 192.,
          7., 248., 0., 15., 112., 0., 0., 0., 0., 224., 255., 255., 30. ]
      - [ 65., 0., 254., 124., 142., 0., 192., 127., 2., 16., 129., 15.,
          4., 0., 238., 31., 254., 238., 255., 251., 119., 127., 119.,
          128., 1., 2., 0., 0., 8., 119., 200., 255., 95., 5., 248., 38.,
          8., 80., 16., 1., 154., 0., 252., 17., 162., 37., 5., 64., 1.,
          56., 0., 0., 16., 0., 0., 0., 0., 233., 123., 255., 31. ]
      - [ 192., 255., 0., 0., 8., 17., 0., 237., 255., 7., 15., 2., 4.,
          128., 255., 79., 30., 128., 7., 240., 0., 15., 6., 0., 0., 2.,
          0., 244., 253., 255., 3., 171., 219., 234., 94., 221., 213.,
          173., 142., 254., 5., 252., 3., 254., 0., 24., 0., 0., 0., 0.,
          0., 0., 240., 255., 255., 255., 223., 3., 122., 242., 1. ]
      - [ 7., 16., 252., 255., 255., 1., 24., 193., 32., 0., 207., 143.,
          5., 0., 238., 15., 254., 159., 255., 255., 255., 255., 255.,
          135., 1., 2., 0., 12., 0., 0., 31., 91., 224., 223., 255.,
          123., 45., 0., 128., 7., 2., 0., 4., 128., 111., 11., 30.,
          158., 135., 247., 240., 15., 127., 128., 1., 2., 0., 224.,
          127., 255., 1. ]
      - [ 127., 16., 248., 255., 255., 17., 184., 247., 191., 16., 133.,
          253., 255., 119., 0., 79., 255., 221., 127., 255., 255., 255.,
          252., 135., 31., 62., 32., 16., 132., 0., 31., 191., 255.,
          255., 255., 255., 159., 66., 128., 81., 130., 0., 80., 254.,
          35., 1., 30., 158., 135., 247., 240., 15., 127., 128., 1., 2.,
          0., 224., 121., 255., 31. ]
      - [ 1., 255., 1., 0., 128., 255., 103., 183., 240., 7., 237., 11.,
          4., 128., 238., 63., 0., 32., 4., 128., 0., 14., 112., 128.,
          1., 2., 0., 244., 253., 255., 112., 106., 157., 82., 252.,
          255., 245., 46., 128., 222., 1., 252., 23., 133., 14., 183.,
          1., 96., 0., 8., 0., 0., 240., 127., 255., 255., 255., 3., 0.,
          0., 63. ]
      - [ 33., 0., 254., 255., 207., 1., 248., 73., 0., 0., 114., 12.,
          4., 0., 238., 127., 254., 159., 255., 247., 255., 255., 127.,
          128., 1., 2., 0., 240., 255., 255., 95., 255., 223., 135.,
          250., 255., 11., 81., 8., 0., 66., 0., 168., 110., 85., 24.,
          30., 159., 247., 255., 254., 239., 63., 128., 0., 0., 0., 252.,
          255., 255., 55. ]
      - [ 8., 14., 114., 56., 30., 0., 192., 126., 17., 252., 120., 3.,
          0., 0., 255., 24., 254., 129., 255., 249., 63., 255., 3., 0.,
          2., 4., 60., 0., 2., 0., 192., 85., 95., 81., 44., 138., 34.,
          80., 127., 4., 254., 43., 255., 129., 143., 63., 30., 128., 7.,
          240., 0., 15., 52., 128., 0., 0., 0., 244., 253., 255., 31. ]
      - [ 65., 8., 126., 60., 0., 0., 248., 34., 0., 232., 248., 15., 4.,
          0., 238., 247., 255., 247., 127., 248., 3., 15., 112., 128.,
          1., 0., 0., 0., 0., 0., 240., 223., 255., 3., 12., 0., 0., 0.,
          128., 0., 1., 160., 254., 213., 139., 181., 7., 224., 1., 24.,
          0., 0., 0., 0., 0., 192., 255., 255., 255., 255., 52. ]
      - [ 127., 16., 248., 255., 255., 1., 248., 63., 224., 75., 180.,
          132., 195., 241., 238., 183., 254., 255., 255., 247., 255.,
          255., 255., 135., 31., 60., 60., 12., 2., 0., 255., 126., 174.,
          159., 3., 0., 63., 15., 0., 128., 206., 9., 133., 32., 255.,
          139., 30., 186., 135., 246., 208., 15., 127., 128., 1., 2., 0.,
          224., 121., 255., 62. ]
      - [ 255., 2., 252., 255., 127., 17., 136., 221., 174., 16., 143.,
          128., 195., 113., 254., 255., 255., 255., 255., 255., 255.,
          255., 159., 7., 30., 62., 60., 28., 132., 0., 207., 255., 31.,
          0., 248., 251., 152., 194., 148., 119., 230., 4., 0., 156.,
          15., 65., 30., 156., 7., 247., 240., 15., 111., 128., 1., 2.,
          0., 224., 121., 255., 31. ]
      - [ 222., 7., 254., 255., 127., 0., 192., 153., 32., 1., 127.,
          240., 251., 255., 17., 176., 255., 239., 255., 243., 127.,
          255., 135., 7., 30., 60., 60., 28., 128., 0., 192., 97., 23.,
          88., 8., 11., 176., 160., 255., 254., 237., 254., 3., 128.,
          15., 224., 31., 254., 135., 247., 240., 15., 31., 0., 0., 0.,
          0., 248., 255., 255., 26. ]
      - [ 31., 16., 246., 251., 127., 0., 0., 192., 223., 189., 16., 14.,
          4., 0., 128., 254., 254., 159., 255., 247., 255., 255., 255.,
          255., 255., 255., 255., 227., 123., 255., 1., 0., 160., 143.,
          244., 145., 159., 11., 128., 32., 65., 68., 34., 223., 155.,
          48., 31., 252., 135., 255., 224., 15., 78., 128., 1., 2., 0.,
          228., 121., 255., 63. ]
      - [ 225., 3., 2., 4., 128., 17., 248., 255., 31., 115., 55., 0.,
          199., 241., 239., 31., 1., 64., 0., 8., 0., 0., 64., 0., 1.,
          2., 0., 12., 2., 0., 223., 121., 111., 222., 139., 123., 24.,
          226., 253., 247., 239., 129., 64., 144., 127., 1., 24., 0., 7.,
          248., 240., 15., 127., 128., 1., 2., 0., 252., 127., 255., 11. ]
      - [ 65., 8., 8., 4., 0., 17., 0., 0., 65., 248., 128., 0., 24.,
          38., 0., 222., 1., 96., 0., 8., 0., 0., 192., 7., 31., 62.,
          28., 0., 2., 0., 192., 8., 0., 0., 64., 0., 76., 101., 170.,
          169., 0., 0., 232., 127., 241., 24., 0., 0., 0., 192., 0., 14.,
          112., 248., 1., 2., 0., 224., 121., 255., 7. ]
      - [ 32., 6., 114., 56., 142., 0., 56., 193., 61., 3., 254., 0., 0.,
          128., 255., 101., 254., 129., 127., 240., 207., 255., 28., 0.,
          0., 0., 24., 28., 2., 0., 31., 34., 192., 184., 27., 247., 49.,
          7., 128., 255., 221., 223., 3., 0., 247., 75., 8., 0., 0.,
          224., 0., 14., 112., 128., 1., 0., 0., 240., 255., 255., 32. ]
      - [ 128., 6., 2., 24., 238., 0., 56., 249., 63., 7., 127., 4., 0.,
          128., 255., 48., 4., 128., 3., 112., 6., 255., 31., 0., 0., 0.,
          28., 12., 0., 0., 62., 119., 255., 221., 191., 251., 51., 15.,
          0., 6., 254., 239., 7., 128., 255., 90., 0., 0., 0., 64., 0.,
          6., 240., 252., 0., 0., 0., 240., 255., 255., 39. ]
      - [ 31., 24., 242., 251., 127., 16., 96., 54., 219., 254., 232.,
          31., 12., 2., 208., 26., 254., 191., 255., 247., 255., 255.,
          255., 135., 11., 6., 4., 0., 6., 0., 216., 31., 157., 71.,
          245., 168., 143., 14., 128., 81., 1., 0., 252., 247., 174.,
          247., 31., 196., 7., 248., 0., 15., 0., 128., 1., 0., 0., 224.,
          255., 255., 7. ]
      - [ 167., 18., 252., 55., 140., 9., 240., 251., 97., 8., 112., 30.,
          4., 0., 160., 231., 255., 127., 255., 239., 159., 238., 240.,
          255., 29., 0., 16., 28., 3., 0., 244., 111., 222., 19., 120.,
          67., 38., 48., 1., 4., 8., 236., 135., 128., 255., 218., 29.,
